<?xml version="1.0"?>
<MethodSetup Method="BDT::BDT">
  <GeneralInfo>
    <Info name="TMVA Release" value="4.2.1 [262657]"/>
    <Info name="ROOT Release" value="6.10/00 [395776]"/>
    <Info name="Creator" value="ms08962476"/>
    <Info name="Date" value="Tue Jan 14 10:54:27 2020"/>
    <Info name="Host" value="Darwin macphsft16.cern.ch 16.1.0 Darwin Kernel Version 16.1.0: Tue Sep 20 21:22:56 PDT 2016; root:xnu-3789.20.49~106/RELEASE_X86_64 x86_64"/>
    <Info name="Dir" value="/Users/ms08962476/singularity/TIming_Studies/Codes"/>
    <Info name="Training events" value="783"/>
    <Info name="TrainingTime" value="5.04747868e-01"/>
    <Info name="AnalysisType" value="Classification"/>
  </GeneralInfo>
  <Options>
    <Option name="V" modified="Yes">False</Option>
    <Option name="VerbosityLevel" modified="No">Default</Option>
    <Option name="VarTransform" modified="No">None</Option>
    <Option name="H" modified="Yes">False</Option>
    <Option name="CreateMVAPdfs" modified="No">False</Option>
    <Option name="IgnoreNegWeightsInTraining" modified="No">False</Option>
    <Option name="NTrees" modified="Yes">1042</Option>
    <Option name="MaxDepth" modified="Yes">3</Option>
    <Option name="MinNodeSize" modified="Yes">2.5%</Option>
    <Option name="nCuts" modified="Yes">20</Option>
    <Option name="BoostType" modified="Yes">AdaBoost</Option>
    <Option name="AdaBoostR2Loss" modified="No">quadratic</Option>
    <Option name="UseBaggedBoost" modified="Yes">True</Option>
    <Option name="Shrinkage" modified="No">1.000000e+00</Option>
    <Option name="AdaBoostBeta" modified="Yes">5.000000e-01</Option>
    <Option name="UseRandomisedTrees" modified="No">False</Option>
    <Option name="UseNvars" modified="No">3</Option>
    <Option name="UsePoissonNvars" modified="No">True</Option>
    <Option name="BaggedSampleFraction" modified="Yes">5.000000e-01</Option>
    <Option name="UseYesNoLeaf" modified="No">True</Option>
    <Option name="NegWeightTreatment" modified="No">inverseboostnegweights</Option>
    <Option name="Css" modified="No">1.000000e+00</Option>
    <Option name="Cts_sb" modified="No">1.000000e+00</Option>
    <Option name="Ctb_ss" modified="No">1.000000e+00</Option>
    <Option name="Cbb" modified="No">1.000000e+00</Option>
    <Option name="NodePurityLimit" modified="No">5.000000e-01</Option>
    <Option name="SeparationType" modified="Yes">giniindex</Option>
    <Option name="RegressionLossFunctionBDTG" modified="No">huber</Option>
    <Option name="HuberQuantile" modified="No">7.000000e-01</Option>
    <Option name="DoBoostMonitor" modified="No">False</Option>
    <Option name="UseFisherCuts" modified="No">False</Option>
    <Option name="MinLinCorrForFisher" modified="No">8.000000e-01</Option>
    <Option name="UseExclusiveVars" modified="No">False</Option>
    <Option name="DoPreselection" modified="No">False</Option>
    <Option name="SigToBkgFraction" modified="No">1.000000e+00</Option>
    <Option name="PruneMethod" modified="No">nopruning</Option>
    <Option name="PruneStrength" modified="No">0.000000e+00</Option>
    <Option name="PruningValFraction" modified="No">5.000000e-01</Option>
    <Option name="SkipNormalization" modified="No">False</Option>
    <Option name="nEventsMin" modified="No">0</Option>
    <Option name="UseBaggedGrad" modified="No">False</Option>
    <Option name="GradBaggingFraction" modified="No">5.000000e-01</Option>
    <Option name="UseNTrainEvents" modified="No">0</Option>
    <Option name="NNodesMax" modified="No">0</Option>
  </Options>
  <Variables NVar="10">
    <Variable VarIndex="0" Expression="dR_Tr0PT_HPt_Reco" Label="dR_Tr0PT_HPt_Reco" Title="dR_Tr0PT_HPt_Reco" Unit="" Internal="dR_Tr0PT_HPt_Reco" Type="F" Min="8.15094542e-03" Max="5.36473513e-01"/>
    <Variable VarIndex="1" Expression="dR_Tr1PT_HPt_Reco" Label="dR_Tr1PT_HPt_Reco" Title="dR_Tr1PT_HPt_Reco" Unit="" Internal="dR_Tr1PT_HPt_Reco" Type="F" Min="7.53956940e-03" Max="4.13928628e-01"/>
    <Variable VarIndex="2" Expression="dR_Tr2PT_HPt_Reco" Label="dR_Tr2PT_HPt_Reco" Title="dR_Tr2PT_HPt_Reco" Unit="" Internal="dR_Tr2PT_HPt_Reco" Type="F" Min="7.67265819e-03" Max="5.59440434e-01"/>
    <Variable VarIndex="3" Expression="dR_Tr3PT_HPt_Reco" Label="dR_Tr3PT_HPt_Reco" Title="dR_Tr3PT_HPt_Reco" Unit="" Internal="dR_Tr3PT_HPt_Reco" Type="F" Min="7.22467201e-03" Max="4.52343583e-01"/>
    <Variable VarIndex="4" Expression="dR_Tr4PT_HPt_Reco" Label="dR_Tr4PT_HPt_Reco" Title="dR_Tr4PT_HPt_Reco" Unit="" Internal="dR_Tr4PT_HPt_Reco" Type="F" Min="7.67265819e-03" Max="4.19323802e-01"/>
    <Variable VarIndex="5" Expression="dR_Tr0T_HPt_Reco" Label="dR_Tr0T_HPt_Reco" Title="dR_Tr0T_HPt_Reco" Unit="" Internal="dR_Tr0T_HPt_Reco" Type="F" Min="0.00000000e+00" Max="4.67768848e-01"/>
    <Variable VarIndex="6" Expression="dR_Tr1T_HPt_Reco" Label="dR_Tr1T_HPt_Reco" Title="dR_Tr1T_HPt_Reco" Unit="" Internal="dR_Tr1T_HPt_Reco" Type="F" Min="0.00000000e+00" Max="4.52343583e-01"/>
    <Variable VarIndex="7" Expression="dR_Tr2T_HPt_Reco" Label="dR_Tr2T_HPt_Reco" Title="dR_Tr2T_HPt_Reco" Unit="" Internal="dR_Tr2T_HPt_Reco" Type="F" Min="0.00000000e+00" Max="4.46004629e-01"/>
    <Variable VarIndex="8" Expression="dR_Tr3T_HPt_Reco" Label="dR_Tr3T_HPt_Reco" Title="dR_Tr3T_HPt_Reco" Unit="" Internal="dR_Tr3T_HPt_Reco" Type="F" Min="0.00000000e+00" Max="4.94397968e-01"/>
    <Variable VarIndex="9" Expression="dR_Tr4T_HPt_Reco" Label="dR_Tr4T_HPt_Reco" Title="dR_Tr4T_HPt_Reco" Unit="" Internal="dR_Tr4T_HPt_Reco" Type="F" Min="0.00000000e+00" Max="4.90198195e-01"/>
  </Variables>
  <Spectators NSpec="0"/>
  <Classes NClass="2">
    <Class Name="Signal" Index="0"/>
    <Class Name="Background" Index="1"/>
  </Classes>
  <Transformations NTransformations="0"/>
  <MVAPdfs/>
  <Weights NTrees="1042" AnalysisType="0">
    <BinaryTree type="DecisionTree" boostWeight="4.0103876000824157e-01" itree="0">
      <Node pos="s" depth="0" NCoef="0" IVar="1" Cut="4.4974703341722488e-02" cType="1" res="-9.9000000000000000e+01" rms="0.0000000000000000e+00" purity="4.8244464397430420e-01" nType="0">
        <Node pos="l" depth="1" NCoef="0" IVar="5" Cut="3.2333484292030334e-01" cType="1" res="-9.9000000000000000e+01" rms="0.0000000000000000e+00" purity="5.5700796842575073e-01" nType="0">
          <Node pos="l" depth="2" NCoef="0" IVar="2" Cut="6.0816589742898941e-02" cType="1" res="-9.9000000000000000e+01" rms="0.0000000000000000e+00" purity="5.9357243776321411e-01" nType="0">
            <Node pos="l" depth="3" NCoef="0" IVar="-1" Cut="0.0000000000000000e+00" cType="1" res="-9.9000000000000000e+01" rms="0.0000000000000000e+00" purity="6.4984452724456787e-01" nType="1"/>
            <Node pos="r" depth="3" NCoef="0" IVar="-1" Cut="0.0000000000000000e+00" cType="1" res="-9.9000000000000000e+01" rms="0.0000000000000000e+00" purity="3.3839479088783264e-01" nType="-1"/>
          </Node>
          <Node pos="r" depth="2" NCoef="0" IVar="-1" Cut="0.0000000000000000e+00" cType="1" res="-9.9000000000000000e+01" rms="0.0000000000000000e+00" purity="9.6296295523643494e-02" nType="-1"/>
        </Node>
        <Node pos="r" depth="1" NCoef="0" IVar="-1" Cut="1.1383401602506638e-01" cType="1" res="-9.9000000000000000e+01" rms="0.0000000000000000e+00" purity="2.4648089706897736e-01" nType="-1"/>
      </Node>
    </BinaryTree>
    <BinaryTree type="DecisionTree" boostWeight="3.9774761217909538e-01" itree="1">
      <Node pos="s" depth="0" NCoef="0" IVar="8" Cut="7.8763954341411591e-02" cType="1" res="-9.9000000000000000e+01" rms="0.0000000000000000e+00" purity="5.0345164537429810e-01" nType="0">
        <Node pos="l" depth="1" NCoef="0" IVar="4" Cut="1.4712315797805786e-01" cType="1" res="-9.9000000000000000e+01" rms="0.0000000000000000e+00" purity="5.6650316715240479e-01" nType="0">
          <Node pos="l" depth="2" NCoef="0" IVar="3" Cut="2.2928165271878242e-02" cType="0" res="-9.9000000000000000e+01" rms="0.0000000000000000e+00" purity="5.9397917985916138e-01" nType="0">
            <Node pos="l" depth="3" NCoef="0" IVar="-1" Cut="0.0000000000000000e+00" cType="1" res="-9.9000000000000000e+01" rms="0.0000000000000000e+00" purity="6.4438027143478394e-01" nType="1"/>
            <Node pos="r" depth="3" NCoef="0" IVar="-1" Cut="0.0000000000000000e+00" cType="1" res="-9.9000000000000000e+01" rms="0.0000000000000000e+00" purity="3.8253530859947205e-01" nType="-1"/>
          </Node>
          <Node pos="r" depth="2" NCoef="0" IVar="-1" Cut="0.0000000000000000e+00" cType="1" res="-9.9000000000000000e+01" rms="0.0000000000000000e+00" purity="9.6341557800769806e-02" nType="-1"/>
        </Node>
        <Node pos="r" depth="1" NCoef="0" IVar="3" Cut="1.2759181857109070e-01" cType="1" res="-9.9000000000000000e+01" rms="0.0000000000000000e+00" purity="2.7098345756530762e-01" nType="0">
          <Node pos="l" depth="2" NCoef="0" IVar="3" Cut="7.7971667051315308e-02" cType="0" res="-9.9000000000000000e+01" rms="0.0000000000000000e+00" purity="3.5194334387779236e-01" nType="0">
            <Node pos="l" depth="3" NCoef="0" IVar="-1" Cut="0.0000000000000000e+00" cType="1" res="-9.9000000000000000e+01" rms="0.0000000000000000e+00" purity="8.6119186878204346e-01" nType="1"/>
            <Node pos="r" depth="3" NCoef="0" IVar="-1" Cut="0.0000000000000000e+00" cType="1" res="-9.9000000000000000e+01" rms="0.0000000000000000e+00" purity="2.4983625113964081e-01" nType="-1"/>
          </Node>
          <Node pos="r" depth="2" NCoef="0" IVar="-1" Cut="0.0000000000000000e+00" cType="1" res="-9.9000000000000000e+01" rms="0.0000000000000000e+00" purity="3.5247180610895157e-02" nType="-1"/>
        </Node>
      </Node>
    </BinaryTree>
    <BinaryTree type="DecisionTree" boostWeight="3.0536592554824321e-01" itree="2">
      <Node pos="s" depth="0" NCoef="0" IVar="9" Cut="7.0028312504291534e-02" cType="1" res="-9.9000000000000000e+01" rms="0.0000000000000000e+00" purity="4.4668862223625183e-01" nType="0">
        <Node pos="l" depth="1" NCoef="0" IVar="2" Cut="1.2697884440422058e-01" cType="1" res="-9.9000000000000000e+01" rms="0.0000000000000000e+00" purity="5.0973081588745117e-01" nType="0">
          <Node pos="l" depth="2" NCoef="0" IVar="8" Cut="6.4844354987144470e-02" cType="1" res="-9.9000000000000000e+01" rms="0.0000000000000000e+00" purity="5.3744673728942871e-01" nType="0">
            <Node pos="l" depth="3" NCoef="0" IVar="-1" Cut="0.0000000000000000e+00" cType="1" res="-9.9000000000000000e+01" rms="0.0000000000000000e+00" purity="5.7811474800109863e-01" nType="1"/>
            <Node pos="r" depth="3" NCoef="0" IVar="-1" Cut="0.0000000000000000e+00" cType="1" res="-9.9000000000000000e+01" rms="0.0000000000000000e+00" purity="3.5401237010955811e-01" nType="-1"/>
          </Node>
          <Node pos="r" depth="2" NCoef="0" IVar="-1" Cut="1.9824853539466858e-01" cType="0" res="-9.9000000000000000e+01" rms="0.0000000000000000e+00" purity="2.0486594736576080e-01" nType="-1"/>
        </Node>
        <Node pos="r" depth="1" NCoef="0" IVar="-1" Cut="9.0190455317497253e-02" cType="1" res="-9.9000000000000000e+01" rms="0.0000000000000000e+00" purity="1.8019521236419678e-01" nType="-1"/>
      </Node>
    </BinaryTree>
    <BinaryTree type="DecisionTree" boostWeight="4.0003442257774069e-01" itree="3">
      <Node pos="s" depth="0" NCoef="0" IVar="0" Cut="1.9347730278968811e-01" cType="1" res="-9.9000000000000000e+01" rms="0.0000000000000000e+00" purity="4.3455702066421509e-01" nType="0">
        <Node pos="l" depth="1" NCoef="0" IVar="1" Cut="3.9205640554428101e-02" cType="1" res="-9.9000000000000000e+01" rms="0.0000000000000000e+00" purity="4.8472175002098083e-01" nType="0">
          <Node pos="l" depth="2" NCoef="0" IVar="9" Cut="2.3315755650401115e-02" cType="0" res="-9.9000000000000000e+01" rms="0.0000000000000000e+00" purity="5.5224925279617310e-01" nType="0">
            <Node pos="l" depth="3" NCoef="0" IVar="-1" Cut="0.0000000000000000e+00" cType="1" res="-9.9000000000000000e+01" rms="0.0000000000000000e+00" purity="6.3984817266464233e-01" nType="1"/>
            <Node pos="r" depth="3" NCoef="0" IVar="-1" Cut="0.0000000000000000e+00" cType="1" res="-9.9000000000000000e+01" rms="0.0000000000000000e+00" purity="3.0478823184967041e-01" nType="-1"/>
          </Node>
          <Node pos="r" depth="2" NCoef="0" IVar="-1" Cut="5.8014888316392899e-02" cType="1" res="-9.9000000000000000e+01" rms="0.0000000000000000e+00" purity="3.4321871399879456e-01" nType="-1"/>
        </Node>
        <Node pos="r" depth="1" NCoef="0" IVar="-1" Cut="2.4019977450370789e-01" cType="0" res="-9.9000000000000000e+01" rms="0.0000000000000000e+00" purity="2.5998527184128761e-02" nType="-1"/>
      </Node>
    </BinaryTree>
    <BinaryTree type="DecisionTree" boostWeight="3.6153115293523930e-01" itree="4">
      <Node pos="s" depth="0" NCoef="0" IVar="9" Cut="1.4271730184555054e-01" cType="1" res="-9.9000000000000000e+01" rms="0.0000000000000000e+00" purity="4.2340415716171265e-01" nType="0">
        <Node pos="l" depth="1" NCoef="0" IVar="2" Cut="3.3947315067052841e-02" cType="1" res="-9.9000000000000000e+01" rms="0.0000000000000000e+00" purity="4.5687121152877808e-01" nType="0">
          <Node pos="l" depth="2" NCoef="0" IVar="2" Cut="2.5122756138443947e-02" cType="0" res="-9.9000000000000000e+01" rms="0.0000000000000000e+00" purity="5.5312955379486084e-01" nType="0">
            <Node pos="l" depth="3" NCoef="0" IVar="-1" Cut="0.0000000000000000e+00" cType="1" res="-9.9000000000000000e+01" rms="0.0000000000000000e+00" purity="7.3060464859008789e-01" nType="1"/>
            <Node pos="r" depth="3" NCoef="0" IVar="-1" Cut="0.0000000000000000e+00" cType="1" res="-9.9000000000000000e+01" rms="0.0000000000000000e+00" purity="4.2175734043121338e-01" nType="-1"/>
          </Node>
          <Node pos="r" depth="2" NCoef="0" IVar="9" Cut="3.2327864319086075e-02" cType="1" res="-9.9000000000000000e+01" rms="0.0000000000000000e+00" purity="3.6544731259346008e-01" nType="0">
            <Node pos="l" depth="3" NCoef="0" IVar="-1" Cut="0.0000000000000000e+00" cType="1" res="-9.9000000000000000e+01" rms="0.0000000000000000e+00" purity="5.3046959638595581e-01" nType="1"/>
            <Node pos="r" depth="3" NCoef="0" IVar="-1" Cut="0.0000000000000000e+00" cType="1" res="-9.9000000000000000e+01" rms="0.0000000000000000e+00" purity="3.0114781856536865e-01" nType="-1"/>
          </Node>
        </Node>
        <Node pos="r" depth="1" NCoef="0" IVar="-1" Cut="0.0000000000000000e+00" cType="1" res="-9.9000000000000000e+01" rms="0.0000000000000000e+00" purity="0.0000000000000000e+00" nType="-1"/>
      </Node>
    </BinaryTree>
    <BinaryTree type="DecisionTree" boostWeight="3.1230773975563764e-01" itree="5">
      <Node pos="s" depth="0" NCoef="0" IVar="9" Cut="1.4005662500858307e-01" cType="1" res="-9.9000000000000000e+01" rms="0.0000000000000000e+00" purity="5.0673383474349976e-01" nType="0">
        <Node pos="l" depth="1" NCoef="0" IVar="5" Cut="1.2834522128105164e-01" cType="1" res="-9.9000000000000000e+01" rms="0.0000000000000000e+00" purity="5.3890413045883179e-01" nType="0">
          <Node pos="l" depth="2" NCoef="0" IVar="3" Cut="2.1373309195041656e-02" cType="0" res="-9.9000000000000000e+01" rms="0.0000000000000000e+00" purity="6.2874436378479004e-01" nType="0">
            <Node pos="l" depth="3" NCoef="0" IVar="-1" Cut="0.0000000000000000e+00" cType="1" res="-9.9000000000000000e+01" rms="0.0000000000000000e+00" purity="6.9810312986373901e-01" nType="1"/>
            <Node pos="r" depth="3" NCoef="0" IVar="-1" Cut="0.0000000000000000e+00" cType="1" res="-9.9000000000000000e+01" rms="0.0000000000000000e+00" purity="4.0957471728324890e-01" nType="-1"/>
          </Node>
          <Node pos="r" depth="2" NCoef="0" IVar="-1" Cut="3.5009750723838806e-01" cType="1" res="-9.9000000000000000e+01" rms="0.0000000000000000e+00" purity="4.2175981402397156e-01" nType="-1"/>
        </Node>
        <Node pos="r" depth="1" NCoef="0" IVar="-1" Cut="1.7616789042949677e-01" cType="1" res="-9.9000000000000000e+01" rms="0.0000000000000000e+00" purity="9.4514600932598114e-02" nType="-1"/>
      </Node>
    </BinaryTree>
    <BinaryTree type="DecisionTree" boostWeight="2.3402273838145393e-01" itree="6">
      <Node pos="s" depth="0" NCoef="0" IVar="4" Cut="8.6606867611408234e-02" cType="1" res="-9.9000000000000000e+01" rms="0.0000000000000000e+00" purity="4.8861914873123169e-01" nType="0">
        <Node pos="l" depth="1" NCoef="0" IVar="7" Cut="1.3152757287025452e-01" cType="1" res="-9.9000000000000000e+01" rms="0.0000000000000000e+00" purity="5.3329986333847046e-01" nType="0">
          <Node pos="l" depth="2" NCoef="0" IVar="-1" Cut="4.3436024338006973e-02" cType="0" res="-9.9000000000000000e+01" rms="0.0000000000000000e+00" purity="5.6642806529998779e-01" nType="1"/>
          <Node pos="r" depth="2" NCoef="0" IVar="-1" Cut="4.3102372437715530e-02" cType="0" res="-9.9000000000000000e+01" rms="0.0000000000000000e+00" purity="2.2693192958831787e-01" nType="-1"/>
        </Node>
        <Node pos="r" depth="1" NCoef="0" IVar="-1" Cut="1.2533845007419586e-01" cType="1" res="-9.9000000000000000e+01" rms="0.0000000000000000e+00" purity="2.0569780468940735e-01" nType="-1"/>
      </Node>
    </BinaryTree>
    <BinaryTree type="DecisionTree" boostWeight="3.8242729034379636e-01" itree="7">
      <Node pos="s" depth="0" NCoef="0" IVar="8" Cut="1.4719076454639435e-01" cType="1" res="-9.9000000000000000e+01" rms="0.0000000000000000e+00" purity="5.2973920106887817e-01" nType="0">
        <Node pos="l" depth="1" NCoef="0" IVar="3" Cut="4.4653911143541336e-02" cType="1" res="-9.9000000000000000e+01" rms="0.0000000000000000e+00" purity="5.6450170278549194e-01" nType="0">
          <Node pos="l" depth="2" NCoef="0" IVar="2" Cut="8.2741156220436096e-02" cType="1" res="-9.9000000000000000e+01" rms="0.0000000000000000e+00" purity="6.2051051855087280e-01" nType="0">
            <Node pos="l" depth="3" NCoef="0" IVar="-1" Cut="0.0000000000000000e+00" cType="1" res="-9.9000000000000000e+01" rms="0.0000000000000000e+00" purity="6.6307604312896729e-01" nType="1"/>
            <Node pos="r" depth="3" NCoef="0" IVar="-1" Cut="0.0000000000000000e+00" cType="1" res="-9.9000000000000000e+01" rms="0.0000000000000000e+00" purity="3.1188127398490906e-01" nType="-1"/>
          </Node>
          <Node pos="r" depth="2" NCoef="0" IVar="9" Cut="4.5256640762090683e-02" cType="0" res="-9.9000000000000000e+01" rms="0.0000000000000000e+00" purity="3.8959443569183350e-01" nType="0">
            <Node pos="l" depth="3" NCoef="0" IVar="-1" Cut="0.0000000000000000e+00" cType="1" res="-9.9000000000000000e+01" rms="0.0000000000000000e+00" purity="5.6615900993347168e-01" nType="1"/>
            <Node pos="r" depth="3" NCoef="0" IVar="-1" Cut="0.0000000000000000e+00" cType="1" res="-9.9000000000000000e+01" rms="0.0000000000000000e+00" purity="2.8726604580879211e-01" nType="-1"/>
          </Node>
        </Node>
        <Node pos="r" depth="1" NCoef="0" IVar="-1" Cut="3.8265433162450790e-02" cType="0" res="-9.9000000000000000e+01" rms="0.0000000000000000e+00" purity="8.8957384228706360e-02" nType="-1"/>
      </Node>
    </BinaryTree>
    <BinaryTree type="DecisionTree" boostWeight="3.5343243003629166e-01" itree="8">
      <Node pos="s" depth="0" NCoef="0" IVar="2" Cut="1.1301284283399582e-01" cType="1" res="-9.9000000000000000e+01" rms="0.0000000000000000e+00" purity="4.7831758856773376e-01" nType="0">
        <Node pos="l" depth="1" NCoef="0" IVar="7" Cut="1.5367653965950012e-01" cType="1" res="-9.9000000000000000e+01" rms="0.0000000000000000e+00" purity="5.3304594755172729e-01" nType="0">
          <Node pos="l" depth="2" NCoef="0" IVar="6" Cut="2.5101371109485626e-02" cType="0" res="-9.9000000000000000e+01" rms="0.0000000000000000e+00" purity="5.6162446737289429e-01" nType="0">
            <Node pos="l" depth="3" NCoef="0" IVar="-1" Cut="0.0000000000000000e+00" cType="1" res="-9.9000000000000000e+01" rms="0.0000000000000000e+00" purity="6.1124718189239502e-01" nType="1"/>
            <Node pos="r" depth="3" NCoef="0" IVar="-1" Cut="0.0000000000000000e+00" cType="1" res="-9.9000000000000000e+01" rms="0.0000000000000000e+00" purity="2.9534181952476501e-01" nType="-1"/>
          </Node>
          <Node pos="r" depth="2" NCoef="0" IVar="-1" Cut="0.0000000000000000e+00" cType="1" res="-9.9000000000000000e+01" rms="0.0000000000000000e+00" purity="1.1346348375082016e-01" nType="-1"/>
        </Node>
        <Node pos="r" depth="1" NCoef="0" IVar="-1" Cut="8.4214732050895691e-02" cType="1" res="-9.9000000000000000e+01" rms="0.0000000000000000e+00" purity="1.8436640501022339e-01" nType="-1"/>
      </Node>
    </BinaryTree>
    <BinaryTree type="DecisionTree" boostWeight="4.0579473348037737e-01" itree="9">
      <Node pos="s" depth="0" NCoef="0" IVar="9" Cut="9.3371085822582245e-02" cType="1" res="-9.9000000000000000e+01" rms="0.0000000000000000e+00" purity="3.9094299077987671e-01" nType="0">
        <Node pos="l" depth="1" NCoef="0" IVar="1" Cut="2.5086035951972008e-02" cType="0" res="-9.9000000000000000e+01" rms="0.0000000000000000e+00" purity="4.3386492133140564e-01" nType="0">
          <Node pos="l" depth="2" NCoef="0" IVar="9" Cut="3.4035481512546539e-02" cType="0" res="-9.9000000000000000e+01" rms="0.0000000000000000e+00" purity="4.9156174063682556e-01" nType="0">
            <Node pos="l" depth="3" NCoef="0" IVar="-1" Cut="0.0000000000000000e+00" cType="1" res="-9.9000000000000000e+01" rms="0.0000000000000000e+00" purity="5.8538317680358887e-01" nType="1"/>
            <Node pos="r" depth="3" NCoef="0" IVar="-1" Cut="0.0000000000000000e+00" cType="1" res="-9.9000000000000000e+01" rms="0.0000000000000000e+00" purity="3.7527403235435486e-01" nType="-1"/>
          </Node>
          <Node pos="r" depth="2" NCoef="0" IVar="7" Cut="2.1479524672031403e-02" cType="1" res="-9.9000000000000000e+01" rms="0.0000000000000000e+00" purity="3.1712085008621216e-01" nType="0">
            <Node pos="l" depth="3" NCoef="0" IVar="-1" Cut="0.0000000000000000e+00" cType="1" res="-9.9000000000000000e+01" rms="0.0000000000000000e+00" purity="7.8201401233673096e-01" nType="1"/>
            <Node pos="r" depth="3" NCoef="0" IVar="-1" Cut="0.0000000000000000e+00" cType="1" res="-9.9000000000000000e+01" rms="0.0000000000000000e+00" purity="2.0966616272926331e-01" nType="-1"/>
          </Node>
        </Node>
        <Node pos="r" depth="1" NCoef="0" IVar="-1" Cut="3.9394028484821320e-02" cType="1" res="-9.9000000000000000e+01" rms="0.0000000000000000e+00" purity="1.5049012005329132e-01" nType="-1"/>
      </Node>
    </BinaryTree>
    <BinaryTree type="DecisionTree" boostWeight="3.6977860524301953e-01" itree="10">
      <Node pos="s" depth="0" NCoef="0" IVar="2" Cut="1.9159525632858276e-01" cType="1" res="-9.9000000000000000e+01" rms="0.0000000000000000e+00" purity="4.4685423374176025e-01" nType="0">
        <Node pos="l" depth="1" NCoef="0" IVar="6" Cut="8.7913095951080322e-02" cType="1" res="-9.9000000000000000e+01" rms="0.0000000000000000e+00" purity="4.6267697215080261e-01" nType="0">
          <Node pos="l" depth="2" NCoef="0" IVar="5" Cut="4.7426346689462662e-02" cType="0" res="-9.9000000000000000e+01" rms="0.0000000000000000e+00" purity="5.3777444362640381e-01" nType="0">
            <Node pos="l" depth="3" NCoef="0" IVar="-1" Cut="0.0000000000000000e+00" cType="1" res="-9.9000000000000000e+01" rms="0.0000000000000000e+00" purity="6.2099111080169678e-01" nType="1"/>
            <Node pos="r" depth="3" NCoef="0" IVar="-1" Cut="0.0000000000000000e+00" cType="1" res="-9.9000000000000000e+01" rms="0.0000000000000000e+00" purity="2.9780361056327820e-01" nType="-1"/>
          </Node>
          <Node pos="r" depth="2" NCoef="0" IVar="0" Cut="2.1287806332111359e-01" cType="0" res="-9.9000000000000000e+01" rms="0.0000000000000000e+00" purity="3.5827854275703430e-01" nType="0">
            <Node pos="l" depth="3" NCoef="0" IVar="-1" Cut="0.0000000000000000e+00" cType="1" res="-9.9000000000000000e+01" rms="0.0000000000000000e+00" purity="8.1155759096145630e-01" nType="1"/>
            <Node pos="r" depth="3" NCoef="0" IVar="-1" Cut="0.0000000000000000e+00" cType="1" res="-9.9000000000000000e+01" rms="0.0000000000000000e+00" purity="3.1096714735031128e-01" nType="-1"/>
          </Node>
        </Node>
        <Node pos="r" depth="1" NCoef="0" IVar="-1" Cut="0.0000000000000000e+00" cType="1" res="-9.9000000000000000e+01" rms="0.0000000000000000e+00" purity="8.3449505269527435e-02" nType="-1"/>
      </Node>
    </BinaryTree>
    <BinaryTree type="DecisionTree" boostWeight="2.9552384729100445e-01" itree="11">
      <Node pos="s" depth="0" NCoef="0" IVar="0" Cut="1.8435473740100861e-01" cType="1" res="-9.9000000000000000e+01" rms="0.0000000000000000e+00" purity="4.7689700126647949e-01" nType="0">
        <Node pos="l" depth="1" NCoef="0" IVar="4" Cut="1.1054801195859909e-01" cType="1" res="-9.9000000000000000e+01" rms="0.0000000000000000e+00" purity="5.0936037302017212e-01" nType="0">
          <Node pos="l" depth="2" NCoef="0" IVar="2" Cut="5.4606620222330093e-02" cType="1" res="-9.9000000000000000e+01" rms="0.0000000000000000e+00" purity="5.4096716642379761e-01" nType="0">
            <Node pos="l" depth="3" NCoef="0" IVar="-1" Cut="0.0000000000000000e+00" cType="1" res="-9.9000000000000000e+01" rms="0.0000000000000000e+00" purity="5.9032708406448364e-01" nType="1"/>
            <Node pos="r" depth="3" NCoef="0" IVar="-1" Cut="0.0000000000000000e+00" cType="1" res="-9.9000000000000000e+01" rms="0.0000000000000000e+00" purity="3.3663305640220642e-01" nType="-1"/>
          </Node>
          <Node pos="r" depth="2" NCoef="0" IVar="-1" Cut="3.7884026765823364e-02" cType="1" res="-9.9000000000000000e+01" rms="0.0000000000000000e+00" purity="2.4251775443553925e-01" nType="-1"/>
        </Node>
        <Node pos="r" depth="1" NCoef="0" IVar="-1" Cut="2.2274707257747650e-01" cType="0" res="-9.9000000000000000e+01" rms="0.0000000000000000e+00" purity="6.9117903709411621e-02" nType="-1"/>
      </Node>
    </BinaryTree>
    <BinaryTree type="DecisionTree" boostWeight="2.0452794416271697e-01" itree="12">
      <Node pos="s" depth="0" NCoef="0" IVar="9" Cut="7.0028312504291534e-02" cType="1" res="-9.9000000000000000e+01" rms="0.0000000000000000e+00" purity="4.7427478432655334e-01" nType="0">
        <Node pos="l" depth="1" NCoef="0" IVar="6" Cut="1.4314086735248566e-01" cType="1" res="-9.9000000000000000e+01" rms="0.0000000000000000e+00" purity="5.1114946603775024e-01" nType="0">
          <Node pos="l" depth="2" NCoef="0" IVar="5" Cut="1.2043709307909012e-01" cType="0" res="-9.9000000000000000e+01" rms="0.0000000000000000e+00" purity="5.4169851541519165e-01" nType="0">
            <Node pos="l" depth="3" NCoef="0" IVar="-1" Cut="0.0000000000000000e+00" cType="1" res="-9.9000000000000000e+01" rms="0.0000000000000000e+00" purity="6.5931123495101929e-01" nType="1"/>
            <Node pos="r" depth="3" NCoef="0" IVar="-1" Cut="0.0000000000000000e+00" cType="1" res="-9.9000000000000000e+01" rms="0.0000000000000000e+00" purity="4.8588341474533081e-01" nType="-1"/>
          </Node>
          <Node pos="r" depth="2" NCoef="0" IVar="-1" Cut="8.2144290208816528e-02" cType="0" res="-9.9000000000000000e+01" rms="0.0000000000000000e+00" purity="3.1860291957855225e-01" nType="-1"/>
        </Node>
        <Node pos="r" depth="1" NCoef="0" IVar="5" Cut="1.1336316913366318e-01" cType="1" res="-9.9000000000000000e+01" rms="0.0000000000000000e+00" purity="2.9660415649414062e-01" nType="0">
          <Node pos="l" depth="2" NCoef="0" IVar="-1" Cut="0.0000000000000000e+00" cType="1" res="-9.9000000000000000e+01" rms="0.0000000000000000e+00" purity="5.1588928699493408e-01" nType="1"/>
          <Node pos="r" depth="2" NCoef="0" IVar="-1" Cut="2.1540170907974243e-01" cType="0" res="-9.9000000000000000e+01" rms="0.0000000000000000e+00" purity="1.8472287058830261e-01" nType="-1"/>
        </Node>
      </Node>
    </BinaryTree>
    <BinaryTree type="DecisionTree" boostWeight="3.0483889193485486e-01" itree="13">
      <Node pos="s" depth="0" NCoef="0" IVar="4" Cut="2.8221392631530762e-01" cType="1" res="-9.9000000000000000e+01" rms="0.0000000000000000e+00" purity="4.7581943869590759e-01" nType="0">
        <Node pos="l" depth="1" NCoef="0" IVar="4" Cut="4.5661993324756622e-02" cType="1" res="-9.9000000000000000e+01" rms="0.0000000000000000e+00" purity="4.9318933486938477e-01" nType="0">
          <Node pos="l" depth="2" NCoef="0" IVar="1" Cut="2.1842142567038536e-02" cType="0" res="-9.9000000000000000e+01" rms="0.0000000000000000e+00" purity="5.2909541130065918e-01" nType="0">
            <Node pos="l" depth="3" NCoef="0" IVar="-1" Cut="0.0000000000000000e+00" cType="1" res="-9.9000000000000000e+01" rms="0.0000000000000000e+00" purity="5.9902226924896240e-01" nType="1"/>
            <Node pos="r" depth="3" NCoef="0" IVar="-1" Cut="0.0000000000000000e+00" cType="1" res="-9.9000000000000000e+01" rms="0.0000000000000000e+00" purity="3.5155305266380310e-01" nType="-1"/>
          </Node>
          <Node pos="r" depth="2" NCoef="0" IVar="7" Cut="5.3921703249216080e-02" cType="0" res="-9.9000000000000000e+01" rms="0.0000000000000000e+00" purity="3.7987259030342102e-01" nType="0">
            <Node pos="l" depth="3" NCoef="0" IVar="-1" Cut="0.0000000000000000e+00" cType="1" res="-9.9000000000000000e+01" rms="0.0000000000000000e+00" purity="5.7656967639923096e-01" nType="1"/>
            <Node pos="r" depth="3" NCoef="0" IVar="-1" Cut="0.0000000000000000e+00" cType="1" res="-9.9000000000000000e+01" rms="0.0000000000000000e+00" purity="1.3840800523757935e-01" nType="-1"/>
          </Node>
        </Node>
        <Node pos="r" depth="1" NCoef="0" IVar="-1" Cut="0.0000000000000000e+00" cType="1" res="-9.9000000000000000e+01" rms="0.0000000000000000e+00" purity="0.0000000000000000e+00" nType="-1"/>
      </Node>
    </BinaryTree>
    <BinaryTree type="DecisionTree" boostWeight="4.6859221100941328e-01" itree="14">
      <Node pos="s" depth="0" NCoef="0" IVar="1" Cut="4.5737151056528091e-02" cType="1" res="-9.9000000000000000e+01" rms="0.0000000000000000e+00" purity="4.6044257283210754e-01" nType="0">
        <Node pos="l" depth="1" NCoef="0" IVar="4" Cut="5.9405785053968430e-02" cType="1" res="-9.9000000000000000e+01" rms="0.0000000000000000e+00" purity="5.5283212661743164e-01" nType="0">
          <Node pos="l" depth="2" NCoef="0" IVar="3" Cut="1.2484952807426453e-01" cType="1" res="-9.9000000000000000e+01" rms="0.0000000000000000e+00" purity="6.4849746227264404e-01" nType="0">
            <Node pos="l" depth="3" NCoef="0" IVar="-1" Cut="0.0000000000000000e+00" cType="1" res="-9.9000000000000000e+01" rms="0.0000000000000000e+00" purity="6.8029361963272095e-01" nType="1"/>
            <Node pos="r" depth="3" NCoef="0" IVar="-1" Cut="0.0000000000000000e+00" cType="1" res="-9.9000000000000000e+01" rms="0.0000000000000000e+00" purity="2.6083391904830933e-01" nType="-1"/>
          </Node>
          <Node pos="r" depth="2" NCoef="0" IVar="6" Cut="6.7530386149883270e-02" cType="1" res="-9.9000000000000000e+01" rms="0.0000000000000000e+00" purity="2.3943506181240082e-01" nType="0">
            <Node pos="l" depth="3" NCoef="0" IVar="-1" Cut="0.0000000000000000e+00" cType="1" res="-9.9000000000000000e+01" rms="0.0000000000000000e+00" purity="6.5844231843948364e-01" nType="1"/>
            <Node pos="r" depth="3" NCoef="0" IVar="-1" Cut="0.0000000000000000e+00" cType="1" res="-9.9000000000000000e+01" rms="0.0000000000000000e+00" purity="1.5813873708248138e-01" nType="-1"/>
          </Node>
        </Node>
        <Node pos="r" depth="1" NCoef="0" IVar="-1" Cut="6.3751287758350372e-02" cType="1" res="-9.9000000000000000e+01" rms="0.0000000000000000e+00" purity="2.7336347103118896e-01" nType="-1"/>
      </Node>
    </BinaryTree>
    <BinaryTree type="DecisionTree" boostWeight="1.6929335963148612e-01" itree="15">
      <Node pos="s" depth="0" NCoef="0" IVar="7" Cut="2.1238315850496292e-02" cType="1" res="-9.9000000000000000e+01" rms="0.0000000000000000e+00" purity="4.7587373852729797e-01" nType="0">
        <Node pos="l" depth="1" NCoef="0" IVar="-1" Cut="1.3253274373710155e-02" cType="0" res="-9.9000000000000000e+01" rms="0.0000000000000000e+00" purity="8.3796632289886475e-01" nType="1"/>
        <Node pos="r" depth="1" NCoef="0" IVar="9" Cut="1.9189339876174927e-01" cType="1" res="-9.9000000000000000e+01" rms="0.0000000000000000e+00" purity="4.5121002197265625e-01" nType="0">
          <Node pos="l" depth="2" NCoef="0" IVar="5" Cut="7.9871200025081635e-02" cType="0" res="-9.9000000000000000e+01" rms="0.0000000000000000e+00" purity="4.6453988552093506e-01" nType="0">
            <Node pos="l" depth="3" NCoef="0" IVar="-1" Cut="0.0000000000000000e+00" cType="1" res="-9.9000000000000000e+01" rms="0.0000000000000000e+00" purity="5.1358562707901001e-01" nType="1"/>
            <Node pos="r" depth="3" NCoef="0" IVar="-1" Cut="0.0000000000000000e+00" cType="1" res="-9.9000000000000000e+01" rms="0.0000000000000000e+00" purity="3.6383426189422607e-01" nType="-1"/>
          </Node>
          <Node pos="r" depth="2" NCoef="0" IVar="-1" Cut="0.0000000000000000e+00" cType="1" res="-9.9000000000000000e+01" rms="0.0000000000000000e+00" purity="0.0000000000000000e+00" nType="-1"/>
        </Node>
      </Node>
    </BinaryTree>
    <BinaryTree type="DecisionTree" boostWeight="2.8319993379869324e-01" itree="16">
      <Node pos="s" depth="0" NCoef="0" IVar="3" Cut="7.1964316070079803e-02" cType="1" res="-9.9000000000000000e+01" rms="0.0000000000000000e+00" purity="4.0930044651031494e-01" nType="0">
        <Node pos="l" depth="1" NCoef="0" IVar="8" Cut="8.5121698677539825e-02" cType="1" res="-9.9000000000000000e+01" rms="0.0000000000000000e+00" purity="4.5331966876983643e-01" nType="0">
          <Node pos="l" depth="2" NCoef="0" IVar="6" Cut="3.9846241474151611e-02" cType="0" res="-9.9000000000000000e+01" rms="0.0000000000000000e+00" purity="4.7786679863929749e-01" nType="0">
            <Node pos="l" depth="3" NCoef="0" IVar="-1" Cut="0.0000000000000000e+00" cType="1" res="-9.9000000000000000e+01" rms="0.0000000000000000e+00" purity="5.4647368192672729e-01" nType="1"/>
            <Node pos="r" depth="3" NCoef="0" IVar="-1" Cut="0.0000000000000000e+00" cType="1" res="-9.9000000000000000e+01" rms="0.0000000000000000e+00" purity="3.3940336108207703e-01" nType="-1"/>
          </Node>
          <Node pos="r" depth="2" NCoef="0" IVar="-1" Cut="4.0856990963220596e-02" cType="1" res="-9.9000000000000000e+01" rms="0.0000000000000000e+00" purity="1.7100109159946442e-01" nType="-1"/>
        </Node>
        <Node pos="r" depth="1" NCoef="0" IVar="-1" Cut="3.7397086620330811e-02" cType="0" res="-9.9000000000000000e+01" rms="0.0000000000000000e+00" purity="2.0029231905937195e-01" nType="-1"/>
      </Node>
    </BinaryTree>
    <BinaryTree type="DecisionTree" boostWeight="2.9933053815743443e-01" itree="17">
      <Node pos="s" depth="0" NCoef="0" IVar="0" Cut="1.7023327946662903e-01" cType="1" res="-9.9000000000000000e+01" rms="0.0000000000000000e+00" purity="4.4098794460296631e-01" nType="0">
        <Node pos="l" depth="1" NCoef="0" IVar="1" Cut="3.9948217570781708e-02" cType="1" res="-9.9000000000000000e+01" rms="0.0000000000000000e+00" purity="4.8050266504287720e-01" nType="0">
          <Node pos="l" depth="2" NCoef="0" IVar="0" Cut="3.1149009242653847e-02" cType="0" res="-9.9000000000000000e+01" rms="0.0000000000000000e+00" purity="5.5195057392120361e-01" nType="0">
            <Node pos="l" depth="3" NCoef="0" IVar="-1" Cut="0.0000000000000000e+00" cType="1" res="-9.9000000000000000e+01" rms="0.0000000000000000e+00" purity="6.5722823143005371e-01" nType="1"/>
            <Node pos="r" depth="3" NCoef="0" IVar="-1" Cut="0.0000000000000000e+00" cType="1" res="-9.9000000000000000e+01" rms="0.0000000000000000e+00" purity="4.6130061149597168e-01" nType="-1"/>
          </Node>
          <Node pos="r" depth="2" NCoef="0" IVar="-1" Cut="9.2811256647109985e-02" cType="1" res="-9.9000000000000000e+01" rms="0.0000000000000000e+00" purity="3.3972790837287903e-01" nType="-1"/>
        </Node>
        <Node pos="r" depth="1" NCoef="0" IVar="-1" Cut="1.0048852115869522e-01" cType="0" res="-9.9000000000000000e+01" rms="0.0000000000000000e+00" purity="1.0554899275302887e-01" nType="-1"/>
      </Node>
    </BinaryTree>
    <BinaryTree type="DecisionTree" boostWeight="4.8422466222150418e-01" itree="18">
      <Node pos="s" depth="0" NCoef="0" IVar="9" Cut="6.1164557933807373e-02" cType="1" res="-9.9000000000000000e+01" rms="0.0000000000000000e+00" purity="5.1150095462799072e-01" nType="0">
        <Node pos="l" depth="1" NCoef="0" IVar="7" Cut="9.1268487274646759e-02" cType="1" res="-9.9000000000000000e+01" rms="0.0000000000000000e+00" purity="5.8884423971176147e-01" nType="0">
          <Node pos="l" depth="2" NCoef="0" IVar="2" Cut="8.7010361254215240e-02" cType="1" res="-9.9000000000000000e+01" rms="0.0000000000000000e+00" purity="6.5351110696792603e-01" nType="0">
            <Node pos="l" depth="3" NCoef="0" IVar="-1" Cut="0.0000000000000000e+00" cType="1" res="-9.9000000000000000e+01" rms="0.0000000000000000e+00" purity="6.8919044733047485e-01" nType="1"/>
            <Node pos="r" depth="3" NCoef="0" IVar="-1" Cut="0.0000000000000000e+00" cType="1" res="-9.9000000000000000e+01" rms="0.0000000000000000e+00" purity="2.3338687419891357e-01" nType="-1"/>
          </Node>
          <Node pos="r" depth="2" NCoef="0" IVar="-1" Cut="1.2514592707157135e-01" cType="1" res="-9.9000000000000000e+01" rms="0.0000000000000000e+00" purity="2.6905602216720581e-01" nType="-1"/>
        </Node>
        <Node pos="r" depth="1" NCoef="0" IVar="8" Cut="1.2178421020507812e-01" cType="0" res="-9.9000000000000000e+01" rms="0.0000000000000000e+00" purity="2.6631191372871399e-01" nType="0">
          <Node pos="l" depth="2" NCoef="0" IVar="4" Cut="5.5235773324966431e-02" cType="1" res="-9.9000000000000000e+01" rms="0.0000000000000000e+00" purity="4.2739257216453552e-01" nType="0">
            <Node pos="l" depth="3" NCoef="0" IVar="-1" Cut="0.0000000000000000e+00" cType="1" res="-9.9000000000000000e+01" rms="0.0000000000000000e+00" purity="7.4702668190002441e-01" nType="1"/>
            <Node pos="r" depth="3" NCoef="0" IVar="-1" Cut="0.0000000000000000e+00" cType="1" res="-9.9000000000000000e+01" rms="0.0000000000000000e+00" purity="1.1602815240621567e-01" nType="-1"/>
          </Node>
          <Node pos="r" depth="2" NCoef="0" IVar="-1" Cut="1.4061249792575836e-01" cType="1" res="-9.9000000000000000e+01" rms="0.0000000000000000e+00" purity="2.0676641166210175e-01" nType="-1"/>
        </Node>
      </Node>
    </BinaryTree>
    <BinaryTree type="DecisionTree" boostWeight="3.3458372455450514e-01" itree="19">
      <Node pos="s" depth="0" NCoef="0" IVar="3" Cut="8.1729024648666382e-02" cType="0" res="-9.9000000000000000e+01" rms="0.0000000000000000e+00" purity="4.1599771380424500e-01" nType="0">
        <Node pos="l" depth="1" NCoef="0" IVar="3" Cut="2.0581768453121185e-01" cType="1" res="-9.9000000000000000e+01" rms="0.0000000000000000e+00" purity="6.9669991731643677e-01" nType="0">
          <Node pos="l" depth="2" NCoef="0" IVar="-1" Cut="6.7518115043640137e-02" cType="1" res="-9.9000000000000000e+01" rms="0.0000000000000000e+00" purity="8.5760784149169922e-01" nType="1"/>
          <Node pos="r" depth="2" NCoef="0" IVar="-1" Cut="0.0000000000000000e+00" cType="1" res="-9.9000000000000000e+01" rms="0.0000000000000000e+00" purity="3.5467287898063660e-01" nType="-1"/>
        </Node>
        <Node pos="r" depth="1" NCoef="0" IVar="7" Cut="1.0835354775190353e-01" cType="0" res="-9.9000000000000000e+01" rms="0.0000000000000000e+00" purity="3.9004203677177429e-01" nType="0">
          <Node pos="l" depth="2" NCoef="0" IVar="5" Cut="1.2057007104158401e-01" cType="1" res="-9.9000000000000000e+01" rms="0.0000000000000000e+00" purity="6.0287064313888550e-01" nType="0">
            <Node pos="l" depth="3" NCoef="0" IVar="-1" Cut="0.0000000000000000e+00" cType="1" res="-9.9000000000000000e+01" rms="0.0000000000000000e+00" purity="9.8076385259628296e-01" nType="1"/>
            <Node pos="r" depth="3" NCoef="0" IVar="-1" Cut="0.0000000000000000e+00" cType="1" res="-9.9000000000000000e+01" rms="0.0000000000000000e+00" purity="4.2346632480621338e-01" nType="-1"/>
          </Node>
          <Node pos="r" depth="2" NCoef="0" IVar="-1" Cut="3.7065617740154266e-02" cType="1" res="-9.9000000000000000e+01" rms="0.0000000000000000e+00" purity="3.5892039537429810e-01" nType="-1"/>
        </Node>
      </Node>
    </BinaryTree>
    <BinaryTree type="DecisionTree" boostWeight="3.0555052324699955e-01" itree="20">
      <Node pos="s" depth="0" NCoef="0" IVar="3" Cut="1.3470271229743958e-01" cType="1" res="-9.9000000000000000e+01" rms="0.0000000000000000e+00" purity="4.9737942218780518e-01" nType="0">
        <Node pos="l" depth="1" NCoef="0" IVar="7" Cut="7.2235696017742157e-02" cType="0" res="-9.9000000000000000e+01" rms="0.0000000000000000e+00" purity="5.2160370349884033e-01" nType="0">
          <Node pos="l" depth="2" NCoef="0" IVar="9" Cut="7.9761728644371033e-02" cType="1" res="-9.9000000000000000e+01" rms="0.0000000000000000e+00" purity="7.0280563831329346e-01" nType="0">
            <Node pos="l" depth="3" NCoef="0" IVar="-1" Cut="0.0000000000000000e+00" cType="1" res="-9.9000000000000000e+01" rms="0.0000000000000000e+00" purity="8.7078928947448730e-01" nType="1"/>
            <Node pos="r" depth="3" NCoef="0" IVar="-1" Cut="0.0000000000000000e+00" cType="1" res="-9.9000000000000000e+01" rms="0.0000000000000000e+00" purity="2.9519057273864746e-01" nType="-1"/>
          </Node>
          <Node pos="r" depth="2" NCoef="0" IVar="9" Cut="5.0085425376892090e-02" cType="1" res="-9.9000000000000000e+01" rms="0.0000000000000000e+00" purity="4.6270591020584106e-01" nType="0">
            <Node pos="l" depth="3" NCoef="0" IVar="-1" Cut="0.0000000000000000e+00" cType="1" res="-9.9000000000000000e+01" rms="0.0000000000000000e+00" purity="5.2000170946121216e-01" nType="1"/>
            <Node pos="r" depth="3" NCoef="0" IVar="-1" Cut="0.0000000000000000e+00" cType="1" res="-9.9000000000000000e+01" rms="0.0000000000000000e+00" purity="1.8924617767333984e-01" nType="-1"/>
          </Node>
        </Node>
        <Node pos="r" depth="1" NCoef="0" IVar="-1" Cut="1.4205825328826904e-01" cType="0" res="-9.9000000000000000e+01" rms="0.0000000000000000e+00" purity="6.8003751337528229e-02" nType="-1"/>
      </Node>
    </BinaryTree>
    <BinaryTree type="DecisionTree" boostWeight="3.2306802807351909e-01" itree="21">
      <Node pos="s" depth="0" NCoef="0" IVar="1" Cut="2.5086035951972008e-02" cType="1" res="-9.9000000000000000e+01" rms="0.0000000000000000e+00" purity="4.8462980985641479e-01" nType="0">
        <Node pos="l" depth="1" NCoef="0" IVar="7" Cut="4.2476631700992584e-02" cType="1" res="-9.9000000000000000e+01" rms="0.0000000000000000e+00" purity="7.2015893459320068e-01" nType="0">
          <Node pos="l" depth="2" NCoef="0" IVar="-1" Cut="2.1119406446814537e-02" cType="1" res="-9.9000000000000000e+01" rms="0.0000000000000000e+00" purity="8.4240818023681641e-01" nType="1"/>
          <Node pos="r" depth="2" NCoef="0" IVar="4" Cut="2.8768058866262436e-02" cType="0" res="-9.9000000000000000e+01" rms="0.0000000000000000e+00" purity="5.1586163043975830e-01" nType="0">
            <Node pos="l" depth="3" NCoef="0" IVar="-1" Cut="0.0000000000000000e+00" cType="1" res="-9.9000000000000000e+01" rms="0.0000000000000000e+00" purity="6.8217051029205322e-01" nType="1"/>
            <Node pos="r" depth="3" NCoef="0" IVar="-1" Cut="0.0000000000000000e+00" cType="1" res="-9.9000000000000000e+01" rms="0.0000000000000000e+00" purity="2.8888696432113647e-01" nType="-1"/>
          </Node>
        </Node>
        <Node pos="r" depth="1" NCoef="0" IVar="2" Cut="1.2697884440422058e-01" cType="1" res="-9.9000000000000000e+01" rms="0.0000000000000000e+00" purity="4.1124039888381958e-01" nType="0">
          <Node pos="l" depth="2" NCoef="0" IVar="2" Cut="2.9628006741404533e-02" cType="0" res="-9.9000000000000000e+01" rms="0.0000000000000000e+00" purity="4.4069436192512512e-01" nType="0">
            <Node pos="l" depth="3" NCoef="0" IVar="-1" Cut="0.0000000000000000e+00" cType="1" res="-9.9000000000000000e+01" rms="0.0000000000000000e+00" purity="5.3086209297180176e-01" nType="1"/>
            <Node pos="r" depth="3" NCoef="0" IVar="-1" Cut="0.0000000000000000e+00" cType="1" res="-9.9000000000000000e+01" rms="0.0000000000000000e+00" purity="3.6045491695404053e-01" nType="-1"/>
          </Node>
          <Node pos="r" depth="2" NCoef="0" IVar="-1" Cut="2.2821821272373199e-01" cType="1" res="-9.9000000000000000e+01" rms="0.0000000000000000e+00" purity="9.2765025794506073e-02" nType="-1"/>
        </Node>
      </Node>
    </BinaryTree>
    <BinaryTree type="DecisionTree" boostWeight="3.7202820246076884e-01" itree="22">
      <Node pos="s" depth="0" NCoef="0" IVar="2" Cut="4.4419974088668823e-02" cType="1" res="-9.9000000000000000e+01" rms="0.0000000000000000e+00" purity="3.8454371690750122e-01" nType="0">
        <Node pos="l" depth="1" NCoef="0" IVar="0" Cut="1.6955363750457764e-01" cType="1" res="-9.9000000000000000e+01" rms="0.0000000000000000e+00" purity="4.2366069555282593e-01" nType="0">
          <Node pos="l" depth="2" NCoef="0" IVar="7" Cut="4.9418561160564423e-02" cType="0" res="-9.9000000000000000e+01" rms="0.0000000000000000e+00" purity="4.4765338301658630e-01" nType="0">
            <Node pos="l" depth="3" NCoef="0" IVar="-1" Cut="0.0000000000000000e+00" cType="1" res="-9.9000000000000000e+01" rms="0.0000000000000000e+00" purity="5.6215280294418335e-01" nType="1"/>
            <Node pos="r" depth="3" NCoef="0" IVar="-1" Cut="0.0000000000000000e+00" cType="1" res="-9.9000000000000000e+01" rms="0.0000000000000000e+00" purity="3.6087381839752197e-01" nType="-1"/>
          </Node>
          <Node pos="r" depth="2" NCoef="0" IVar="-1" Cut="0.0000000000000000e+00" cType="1" res="-9.9000000000000000e+01" rms="0.0000000000000000e+00" purity="1.2273200601339340e-01" nType="-1"/>
        </Node>
        <Node pos="r" depth="1" NCoef="0" IVar="5" Cut="7.0709407329559326e-02" cType="1" res="-9.9000000000000000e+01" rms="0.0000000000000000e+00" purity="2.8007215261459351e-01" nType="0">
          <Node pos="l" depth="2" NCoef="0" IVar="7" Cut="6.1073616147041321e-02" cType="0" res="-9.9000000000000000e+01" rms="0.0000000000000000e+00" purity="5.0160598754882812e-01" nType="0">
            <Node pos="l" depth="3" NCoef="0" IVar="-1" Cut="0.0000000000000000e+00" cType="1" res="-9.9000000000000000e+01" rms="0.0000000000000000e+00" purity="8.6878854036331177e-01" nType="1"/>
            <Node pos="r" depth="3" NCoef="0" IVar="-1" Cut="0.0000000000000000e+00" cType="1" res="-9.9000000000000000e+01" rms="0.0000000000000000e+00" purity="9.6325211226940155e-02" nType="-1"/>
          </Node>
          <Node pos="r" depth="2" NCoef="0" IVar="3" Cut="7.1174547076225281e-02" cType="0" res="-9.9000000000000000e+01" rms="0.0000000000000000e+00" purity="2.1117658913135529e-01" nType="0">
            <Node pos="l" depth="3" NCoef="0" IVar="-1" Cut="0.0000000000000000e+00" cType="1" res="-9.9000000000000000e+01" rms="0.0000000000000000e+00" purity="5.2440714836120605e-01" nType="1"/>
            <Node pos="r" depth="3" NCoef="0" IVar="-1" Cut="0.0000000000000000e+00" cType="1" res="-9.9000000000000000e+01" rms="0.0000000000000000e+00" purity="1.6497235000133514e-01" nType="-1"/>
          </Node>
        </Node>
      </Node>
    </BinaryTree>
    <BinaryTree type="DecisionTree" boostWeight="3.4974511267051900e-01" itree="23">
      <Node pos="s" depth="0" NCoef="0" IVar="5" Cut="6.0749191790819168e-02" cType="1" res="-9.9000000000000000e+01" rms="0.0000000000000000e+00" purity="4.4776397943496704e-01" nType="0">
        <Node pos="l" depth="1" NCoef="0" IVar="4" Cut="7.0095807313919067e-02" cType="1" res="-9.9000000000000000e+01" rms="0.0000000000000000e+00" purity="6.4729261398315430e-01" nType="0">
          <Node pos="l" depth="2" NCoef="0" IVar="4" Cut="3.3050879836082458e-02" cType="1" res="-9.9000000000000000e+01" rms="0.0000000000000000e+00" purity="7.0748370885848999e-01" nType="0">
            <Node pos="l" depth="3" NCoef="0" IVar="-1" Cut="0.0000000000000000e+00" cType="1" res="-9.9000000000000000e+01" rms="0.0000000000000000e+00" purity="8.0787175893783569e-01" nType="1"/>
            <Node pos="r" depth="3" NCoef="0" IVar="-1" Cut="0.0000000000000000e+00" cType="1" res="-9.9000000000000000e+01" rms="0.0000000000000000e+00" purity="4.3474358320236206e-01" nType="-1"/>
          </Node>
          <Node pos="r" depth="2" NCoef="0" IVar="-1" Cut="0.0000000000000000e+00" cType="1" res="-9.9000000000000000e+01" rms="0.0000000000000000e+00" purity="3.6652451753616333e-01" nType="-1"/>
        </Node>
        <Node pos="r" depth="1" NCoef="0" IVar="9" Cut="1.4228402078151703e-01" cType="1" res="-9.9000000000000000e+01" rms="0.0000000000000000e+00" purity="4.0190365910530090e-01" nType="0">
          <Node pos="l" depth="2" NCoef="0" IVar="9" Cut="3.9801422506570816e-02" cType="0" res="-9.9000000000000000e+01" rms="0.0000000000000000e+00" purity="4.2001065611839294e-01" nType="0">
            <Node pos="l" depth="3" NCoef="0" IVar="-1" Cut="0.0000000000000000e+00" cType="1" res="-9.9000000000000000e+01" rms="0.0000000000000000e+00" purity="5.8895450830459595e-01" nType="1"/>
            <Node pos="r" depth="3" NCoef="0" IVar="-1" Cut="0.0000000000000000e+00" cType="1" res="-9.9000000000000000e+01" rms="0.0000000000000000e+00" purity="3.3434730768203735e-01" nType="-1"/>
          </Node>
          <Node pos="r" depth="2" NCoef="0" IVar="-1" Cut="0.0000000000000000e+00" cType="1" res="-9.9000000000000000e+01" rms="0.0000000000000000e+00" purity="0.0000000000000000e+00" nType="-1"/>
        </Node>
      </Node>
    </BinaryTree>
    <BinaryTree type="DecisionTree" boostWeight="2.5139930213646655e-01" itree="24">
      <Node pos="s" depth="0" NCoef="0" IVar="5" Cut="3.1948480010032654e-01" cType="1" res="-9.9000000000000000e+01" rms="0.0000000000000000e+00" purity="5.1001292467117310e-01" nType="0">
        <Node pos="l" depth="1" NCoef="0" IVar="4" Cut="1.2526750564575195e-01" cType="1" res="-9.9000000000000000e+01" rms="0.0000000000000000e+00" purity="5.3965145349502563e-01" nType="0">
          <Node pos="l" depth="2" NCoef="0" IVar="7" Cut="6.0020759701728821e-02" cType="1" res="-9.9000000000000000e+01" rms="0.0000000000000000e+00" purity="5.6908988952636719e-01" nType="0">
            <Node pos="l" depth="3" NCoef="0" IVar="-1" Cut="0.0000000000000000e+00" cType="1" res="-9.9000000000000000e+01" rms="0.0000000000000000e+00" purity="6.2502348423004150e-01" nType="1"/>
            <Node pos="r" depth="3" NCoef="0" IVar="-1" Cut="0.0000000000000000e+00" cType="1" res="-9.9000000000000000e+01" rms="0.0000000000000000e+00" purity="4.7047841548919678e-01" nType="-1"/>
          </Node>
          <Node pos="r" depth="2" NCoef="0" IVar="-1" Cut="1.5630742907524109e-01" cType="0" res="-9.9000000000000000e+01" rms="0.0000000000000000e+00" purity="2.7860477566719055e-01" nType="-1"/>
        </Node>
        <Node pos="r" depth="1" NCoef="0" IVar="-1" Cut="1.0060323774814606e-01" cType="0" res="-9.9000000000000000e+01" rms="0.0000000000000000e+00" purity="1.2506449222564697e-01" nType="-1"/>
      </Node>
    </BinaryTree>
    <BinaryTree type="DecisionTree" boostWeight="4.7273911677672298e-01" itree="25">
      <Node pos="s" depth="0" NCoef="0" IVar="4" Cut="1.4510406553745270e-01" cType="1" res="-9.9000000000000000e+01" rms="0.0000000000000000e+00" purity="6.0138112306594849e-01" nType="0">
        <Node pos="l" depth="1" NCoef="0" IVar="7" Cut="3.6117848008871078e-02" cType="0" res="-9.9000000000000000e+01" rms="0.0000000000000000e+00" purity="6.3002091646194458e-01" nType="0">
          <Node pos="l" depth="2" NCoef="0" IVar="-1" Cut="4.7396577894687653e-02" cType="1" res="-9.9000000000000000e+01" rms="0.0000000000000000e+00" purity="7.1500414609909058e-01" nType="1"/>
          <Node pos="r" depth="2" NCoef="0" IVar="1" Cut="2.0751612260937691e-02" cType="1" res="-9.9000000000000000e+01" rms="0.0000000000000000e+00" purity="4.7881764173507690e-01" nType="0">
            <Node pos="l" depth="3" NCoef="0" IVar="-1" Cut="0.0000000000000000e+00" cType="1" res="-9.9000000000000000e+01" rms="0.0000000000000000e+00" purity="8.0586606264114380e-01" nType="1"/>
            <Node pos="r" depth="3" NCoef="0" IVar="-1" Cut="0.0000000000000000e+00" cType="1" res="-9.9000000000000000e+01" rms="0.0000000000000000e+00" purity="3.1858906149864197e-01" nType="-1"/>
          </Node>
        </Node>
        <Node pos="r" depth="1" NCoef="0" IVar="-1" Cut="1.5063777565956116e-01" cType="0" res="-9.9000000000000000e+01" rms="0.0000000000000000e+00" purity="2.4818620085716248e-01" nType="-1"/>
      </Node>
    </BinaryTree>
    <BinaryTree type="DecisionTree" boostWeight="3.3499064667803796e-01" itree="26">
      <Node pos="s" depth="0" NCoef="0" IVar="7" Cut="8.4953263401985168e-02" cType="1" res="-9.9000000000000000e+01" rms="0.0000000000000000e+00" purity="5.4503339529037476e-01" nType="0">
        <Node pos="l" depth="1" NCoef="0" IVar="0" Cut="1.0089647769927979e-01" cType="1" res="-9.9000000000000000e+01" rms="0.0000000000000000e+00" purity="5.8600193262100220e-01" nType="0">
          <Node pos="l" depth="2" NCoef="0" IVar="9" Cut="5.5039521306753159e-02" cType="1" res="-9.9000000000000000e+01" rms="0.0000000000000000e+00" purity="6.1950796842575073e-01" nType="0">
            <Node pos="l" depth="3" NCoef="0" IVar="-1" Cut="0.0000000000000000e+00" cType="1" res="-9.9000000000000000e+01" rms="0.0000000000000000e+00" purity="6.6564536094665527e-01" nType="1"/>
            <Node pos="r" depth="3" NCoef="0" IVar="-1" Cut="0.0000000000000000e+00" cType="1" res="-9.9000000000000000e+01" rms="0.0000000000000000e+00" purity="3.8504517078399658e-01" nType="-1"/>
          </Node>
          <Node pos="r" depth="2" NCoef="0" IVar="-1" Cut="2.6862027123570442e-02" cType="0" res="-9.9000000000000000e+01" rms="0.0000000000000000e+00" purity="3.1707978248596191e-01" nType="-1"/>
        </Node>
        <Node pos="r" depth="1" NCoef="0" IVar="4" Cut="1.8900151550769806e-01" cType="0" res="-9.9000000000000000e+01" rms="0.0000000000000000e+00" purity="4.2244973778724670e-01" nType="0">
          <Node pos="l" depth="2" NCoef="0" IVar="-1" Cut="0.0000000000000000e+00" cType="1" res="-9.9000000000000000e+01" rms="0.0000000000000000e+00" purity="8.0460894107818604e-01" nType="1"/>
          <Node pos="r" depth="2" NCoef="0" IVar="-1" Cut="3.7726979702711105e-02" cType="0" res="-9.9000000000000000e+01" rms="0.0000000000000000e+00" purity="3.5793527960777283e-01" nType="-1"/>
        </Node>
      </Node>
    </BinaryTree>
    <BinaryTree type="DecisionTree" boostWeight="3.7095127267344025e-01" itree="27">
      <Node pos="s" depth="0" NCoef="0" IVar="7" Cut="1.0619157552719116e-01" cType="0" res="-9.9000000000000000e+01" rms="0.0000000000000000e+00" purity="4.3250134587287903e-01" nType="0">
        <Node pos="l" depth="1" NCoef="0" IVar="1" Cut="6.8539254367351532e-02" cType="1" res="-9.9000000000000000e+01" rms="0.0000000000000000e+00" purity="6.4493840932846069e-01" nType="0">
          <Node pos="l" depth="2" NCoef="0" IVar="1" Cut="2.9656391590833664e-02" cType="0" res="-9.9000000000000000e+01" rms="0.0000000000000000e+00" purity="7.7706688642501831e-01" nType="0">
            <Node pos="l" depth="3" NCoef="0" IVar="-1" Cut="0.0000000000000000e+00" cType="1" res="-9.9000000000000000e+01" rms="0.0000000000000000e+00" purity="9.3940305709838867e-01" nType="1"/>
            <Node pos="r" depth="3" NCoef="0" IVar="-1" Cut="0.0000000000000000e+00" cType="1" res="-9.9000000000000000e+01" rms="0.0000000000000000e+00" purity="4.6583926677703857e-01" nType="-1"/>
          </Node>
          <Node pos="r" depth="2" NCoef="0" IVar="-1" Cut="0.0000000000000000e+00" cType="1" res="-9.9000000000000000e+01" rms="0.0000000000000000e+00" purity="2.6608151197433472e-01" nType="-1"/>
        </Node>
        <Node pos="r" depth="1" NCoef="0" IVar="5" Cut="5.5965598672628403e-02" cType="1" res="-9.9000000000000000e+01" rms="0.0000000000000000e+00" purity="4.0062886476516724e-01" nType="0">
          <Node pos="l" depth="2" NCoef="0" IVar="1" Cut="3.9546921849250793e-02" cType="1" res="-9.9000000000000000e+01" rms="0.0000000000000000e+00" purity="6.2946122884750366e-01" nType="0">
            <Node pos="l" depth="3" NCoef="0" IVar="-1" Cut="0.0000000000000000e+00" cType="1" res="-9.9000000000000000e+01" rms="0.0000000000000000e+00" purity="7.2667151689529419e-01" nType="1"/>
            <Node pos="r" depth="3" NCoef="0" IVar="-1" Cut="0.0000000000000000e+00" cType="1" res="-9.9000000000000000e+01" rms="0.0000000000000000e+00" purity="2.5505080819129944e-01" nType="-1"/>
          </Node>
          <Node pos="r" depth="2" NCoef="0" IVar="-1" Cut="1.0428201407194138e-01" cType="0" res="-9.9000000000000000e+01" rms="0.0000000000000000e+00" purity="3.5285696387290955e-01" nType="-1"/>
        </Node>
      </Node>
    </BinaryTree>
    <BinaryTree type="DecisionTree" boostWeight="2.0632282152754994e-01" itree="28">
      <Node pos="s" depth="0" NCoef="0" IVar="5" Cut="2.0249729976058006e-02" cType="1" res="-9.9000000000000000e+01" rms="0.0000000000000000e+00" purity="4.7635608911514282e-01" nType="0">
        <Node pos="l" depth="1" NCoef="0" IVar="-1" Cut="0.0000000000000000e+00" cType="1" res="-9.9000000000000000e+01" rms="0.0000000000000000e+00" purity="8.5957890748977661e-01" nType="1"/>
        <Node pos="r" depth="1" NCoef="0" IVar="1" Cut="1.2191400676965714e-01" cType="1" res="-9.9000000000000000e+01" rms="0.0000000000000000e+00" purity="4.5994749665260315e-01" nType="0">
          <Node pos="l" depth="2" NCoef="0" IVar="7" Cut="3.7146657705307007e-02" cType="0" res="-9.9000000000000000e+01" rms="0.0000000000000000e+00" purity="4.7823211550712585e-01" nType="0">
            <Node pos="l" depth="3" NCoef="0" IVar="-1" Cut="0.0000000000000000e+00" cType="1" res="-9.9000000000000000e+01" rms="0.0000000000000000e+00" purity="5.4641276597976685e-01" nType="1"/>
            <Node pos="r" depth="3" NCoef="0" IVar="-1" Cut="0.0000000000000000e+00" cType="1" res="-9.9000000000000000e+01" rms="0.0000000000000000e+00" purity="3.8347724080085754e-01" nType="-1"/>
          </Node>
          <Node pos="r" depth="2" NCoef="0" IVar="-1" Cut="4.7933101654052734e-02" cType="1" res="-9.9000000000000000e+01" rms="0.0000000000000000e+00" purity="1.8391056358814240e-01" nType="-1"/>
        </Node>
      </Node>
    </BinaryTree>
    <BinaryTree type="DecisionTree" boostWeight="3.1626626428210663e-01" itree="29">
      <Node pos="s" depth="0" NCoef="0" IVar="1" Cut="2.5176467373967171e-02" cType="0" res="-9.9000000000000000e+01" rms="0.0000000000000000e+00" purity="4.6762612462043762e-01" nType="0">
        <Node pos="l" depth="1" NCoef="0" IVar="5" Cut="3.5639530420303345e-01" cType="1" res="-9.9000000000000000e+01" rms="0.0000000000000000e+00" purity="5.2525436878204346e-01" nType="0">
          <Node pos="l" depth="2" NCoef="0" IVar="3" Cut="5.7228509336709976e-02" cType="1" res="-9.9000000000000000e+01" rms="0.0000000000000000e+00" purity="5.5400443077087402e-01" nType="0">
            <Node pos="l" depth="3" NCoef="0" IVar="-1" Cut="0.0000000000000000e+00" cType="1" res="-9.9000000000000000e+01" rms="0.0000000000000000e+00" purity="6.0332739353179932e-01" nType="1"/>
            <Node pos="r" depth="3" NCoef="0" IVar="-1" Cut="0.0000000000000000e+00" cType="1" res="-9.9000000000000000e+01" rms="0.0000000000000000e+00" purity="3.8241347670555115e-01" nType="-1"/>
          </Node>
          <Node pos="r" depth="2" NCoef="0" IVar="-1" Cut="0.0000000000000000e+00" cType="1" res="-9.9000000000000000e+01" rms="0.0000000000000000e+00" purity="5.9843178838491440e-02" nType="-1"/>
        </Node>
        <Node pos="r" depth="1" NCoef="0" IVar="5" Cut="8.3712361752986908e-02" cType="0" res="-9.9000000000000000e+01" rms="0.0000000000000000e+00" purity="3.4892776608467102e-01" nType="0">
          <Node pos="l" depth="2" NCoef="0" IVar="3" Cut="3.0380858108401299e-02" cType="0" res="-9.9000000000000000e+01" rms="0.0000000000000000e+00" purity="4.5459538698196411e-01" nType="0">
            <Node pos="l" depth="3" NCoef="0" IVar="-1" Cut="0.0000000000000000e+00" cType="1" res="-9.9000000000000000e+01" rms="0.0000000000000000e+00" purity="6.2343537807464600e-01" nType="1"/>
            <Node pos="r" depth="3" NCoef="0" IVar="-1" Cut="0.0000000000000000e+00" cType="1" res="-9.9000000000000000e+01" rms="0.0000000000000000e+00" purity="3.3119547367095947e-01" nType="-1"/>
          </Node>
          <Node pos="r" depth="2" NCoef="0" IVar="-1" Cut="4.8816509544849396e-02" cType="1" res="-9.9000000000000000e+01" rms="0.0000000000000000e+00" purity="2.1693563461303711e-01" nType="-1"/>
        </Node>
      </Node>
    </BinaryTree>
    <BinaryTree type="DecisionTree" boostWeight="4.1639001621660504e-01" itree="30">
      <Node pos="s" depth="0" NCoef="0" IVar="6" Cut="1.3087595999240875e-01" cType="1" res="-9.9000000000000000e+01" rms="0.0000000000000000e+00" purity="4.8835790157318115e-01" nType="0">
        <Node pos="l" depth="1" NCoef="0" IVar="6" Cut="4.3479561805725098e-02" cType="0" res="-9.9000000000000000e+01" rms="0.0000000000000000e+00" purity="5.4335391521453857e-01" nType="0">
          <Node pos="l" depth="2" NCoef="0" IVar="0" Cut="1.2987494468688965e-01" cType="1" res="-9.9000000000000000e+01" rms="0.0000000000000000e+00" purity="6.2914454936981201e-01" nType="0">
            <Node pos="l" depth="3" NCoef="0" IVar="-1" Cut="0.0000000000000000e+00" cType="1" res="-9.9000000000000000e+01" rms="0.0000000000000000e+00" purity="6.5583097934722900e-01" nType="1"/>
            <Node pos="r" depth="3" NCoef="0" IVar="-1" Cut="0.0000000000000000e+00" cType="1" res="-9.9000000000000000e+01" rms="0.0000000000000000e+00" purity="2.9412573575973511e-01" nType="-1"/>
          </Node>
          <Node pos="r" depth="2" NCoef="0" IVar="9" Cut="1.9135912880301476e-02" cType="1" res="-9.9000000000000000e+01" rms="0.0000000000000000e+00" purity="4.1052788496017456e-01" nType="0">
            <Node pos="l" depth="3" NCoef="0" IVar="-1" Cut="0.0000000000000000e+00" cType="1" res="-9.9000000000000000e+01" rms="0.0000000000000000e+00" purity="7.5495123863220215e-01" nType="1"/>
            <Node pos="r" depth="3" NCoef="0" IVar="-1" Cut="0.0000000000000000e+00" cType="1" res="-9.9000000000000000e+01" rms="0.0000000000000000e+00" purity="3.0078437924385071e-01" nType="-1"/>
          </Node>
        </Node>
        <Node pos="r" depth="1" NCoef="0" IVar="0" Cut="1.6828387975692749e-01" cType="0" res="-9.9000000000000000e+01" rms="0.0000000000000000e+00" purity="2.7937823534011841e-01" nType="0">
          <Node pos="l" depth="2" NCoef="0" IVar="-1" Cut="0.0000000000000000e+00" cType="1" res="-9.9000000000000000e+01" rms="0.0000000000000000e+00" purity="6.4458334445953369e-01" nType="1"/>
          <Node pos="r" depth="2" NCoef="0" IVar="-1" Cut="5.5760685354471207e-02" cType="1" res="-9.9000000000000000e+01" rms="0.0000000000000000e+00" purity="2.2204038500785828e-01" nType="-1"/>
        </Node>
      </Node>
    </BinaryTree>
    <BinaryTree type="DecisionTree" boostWeight="3.8972178502115906e-01" itree="31">
      <Node pos="s" depth="0" NCoef="0" IVar="2" Cut="2.8127841651439667e-02" cType="1" res="-9.9000000000000000e+01" rms="0.0000000000000000e+00" purity="4.7471624612808228e-01" nType="0">
        <Node pos="l" depth="1" NCoef="0" IVar="2" Cut="2.7046812698245049e-02" cType="0" res="-9.9000000000000000e+01" rms="0.0000000000000000e+00" purity="6.1253982782363892e-01" nType="0">
          <Node pos="l" depth="2" NCoef="0" IVar="-1" Cut="2.7613738551735878e-02" cType="1" res="-9.9000000000000000e+01" rms="0.0000000000000000e+00" purity="8.8950836658477783e-01" nType="1"/>
          <Node pos="r" depth="2" NCoef="0" IVar="0" Cut="4.4827058911323547e-02" cType="0" res="-9.9000000000000000e+01" rms="0.0000000000000000e+00" purity="5.5413752794265747e-01" nType="0">
            <Node pos="l" depth="3" NCoef="0" IVar="-1" Cut="0.0000000000000000e+00" cType="1" res="-9.9000000000000000e+01" rms="0.0000000000000000e+00" purity="8.5187673568725586e-01" nType="1"/>
            <Node pos="r" depth="3" NCoef="0" IVar="-1" Cut="0.0000000000000000e+00" cType="1" res="-9.9000000000000000e+01" rms="0.0000000000000000e+00" purity="4.6246349811553955e-01" nType="-1"/>
          </Node>
        </Node>
        <Node pos="r" depth="1" NCoef="0" IVar="1" Cut="3.0887993052601814e-02" cType="1" res="-9.9000000000000000e+01" rms="0.0000000000000000e+00" purity="3.9715662598609924e-01" nType="0">
          <Node pos="l" depth="2" NCoef="0" IVar="9" Cut="5.3632058203220367e-02" cType="1" res="-9.9000000000000000e+01" rms="0.0000000000000000e+00" purity="5.7037210464477539e-01" nType="0">
            <Node pos="l" depth="3" NCoef="0" IVar="-1" Cut="0.0000000000000000e+00" cType="1" res="-9.9000000000000000e+01" rms="0.0000000000000000e+00" purity="7.3844242095947266e-01" nType="1"/>
            <Node pos="r" depth="3" NCoef="0" IVar="-1" Cut="0.0000000000000000e+00" cType="1" res="-9.9000000000000000e+01" rms="0.0000000000000000e+00" purity="2.9175168275833130e-01" nType="-1"/>
          </Node>
          <Node pos="r" depth="2" NCoef="0" IVar="-1" Cut="4.7930542379617691e-02" cType="0" res="-9.9000000000000000e+01" rms="0.0000000000000000e+00" purity="3.1316745281219482e-01" nType="-1"/>
        </Node>
      </Node>
    </BinaryTree>
    <BinaryTree type="DecisionTree" boostWeight="4.0107905242394065e-01" itree="32">
      <Node pos="s" depth="0" NCoef="0" IVar="5" Cut="1.1980680376291275e-01" cType="1" res="-9.9000000000000000e+01" rms="0.0000000000000000e+00" purity="5.4375767707824707e-01" nType="0">
        <Node pos="l" depth="1" NCoef="0" IVar="2" Cut="1.9125226885080338e-02" cType="0" res="-9.9000000000000000e+01" rms="0.0000000000000000e+00" purity="6.8419390916824341e-01" nType="0">
          <Node pos="l" depth="2" NCoef="0" IVar="-1" Cut="8.4677502512931824e-02" cType="1" res="-9.9000000000000000e+01" rms="0.0000000000000000e+00" purity="7.2553306818008423e-01" nType="1"/>
          <Node pos="r" depth="2" NCoef="0" IVar="-1" Cut="0.0000000000000000e+00" cType="1" res="-9.9000000000000000e+01" rms="0.0000000000000000e+00" purity="4.2944473028182983e-01" nType="-1"/>
        </Node>
        <Node pos="r" depth="1" NCoef="0" IVar="7" Cut="1.2641246616840363e-01" cType="1" res="-9.9000000000000000e+01" rms="0.0000000000000000e+00" purity="4.0606027841567993e-01" nType="0">
          <Node pos="l" depth="2" NCoef="0" IVar="4" Cut="2.8231587260961533e-02" cType="1" res="-9.9000000000000000e+01" rms="0.0000000000000000e+00" purity="4.8517137765884399e-01" nType="0">
            <Node pos="l" depth="3" NCoef="0" IVar="-1" Cut="0.0000000000000000e+00" cType="1" res="-9.9000000000000000e+01" rms="0.0000000000000000e+00" purity="6.7726129293441772e-01" nType="1"/>
            <Node pos="r" depth="3" NCoef="0" IVar="-1" Cut="0.0000000000000000e+00" cType="1" res="-9.9000000000000000e+01" rms="0.0000000000000000e+00" purity="4.0139511227607727e-01" nType="-1"/>
          </Node>
          <Node pos="r" depth="2" NCoef="0" IVar="-1" Cut="1.3731701672077179e-01" cType="1" res="-9.9000000000000000e+01" rms="0.0000000000000000e+00" purity="1.3558131456375122e-01" nType="-1"/>
        </Node>
      </Node>
    </BinaryTree>
    <BinaryTree type="DecisionTree" boostWeight="3.9335892435666914e-01" itree="33">
      <Node pos="s" depth="0" NCoef="0" IVar="1" Cut="4.5804768800735474e-02" cType="1" res="-9.9000000000000000e+01" rms="0.0000000000000000e+00" purity="5.3569245338439941e-01" nType="0">
        <Node pos="l" depth="1" NCoef="0" IVar="7" Cut="2.7096748352050781e-02" cType="1" res="-9.9000000000000000e+01" rms="0.0000000000000000e+00" purity="5.8899664878845215e-01" nType="0">
          <Node pos="l" depth="2" NCoef="0" IVar="-1" Cut="2.5748809799551964e-02" cType="1" res="-9.9000000000000000e+01" rms="0.0000000000000000e+00" purity="8.8997477293014526e-01" nType="1"/>
          <Node pos="r" depth="2" NCoef="0" IVar="7" Cut="8.8418416678905487e-02" cType="0" res="-9.9000000000000000e+01" rms="0.0000000000000000e+00" purity="5.3840637207031250e-01" nType="0">
            <Node pos="l" depth="3" NCoef="0" IVar="-1" Cut="0.0000000000000000e+00" cType="1" res="-9.9000000000000000e+01" rms="0.0000000000000000e+00" purity="8.3568668365478516e-01" nType="1"/>
            <Node pos="r" depth="3" NCoef="0" IVar="-1" Cut="0.0000000000000000e+00" cType="1" res="-9.9000000000000000e+01" rms="0.0000000000000000e+00" purity="4.6081617474555969e-01" nType="-1"/>
          </Node>
        </Node>
        <Node pos="r" depth="1" NCoef="0" IVar="7" Cut="9.0294621884822845e-02" cType="1" res="-9.9000000000000000e+01" rms="0.0000000000000000e+00" purity="3.9190453290939331e-01" nType="0">
          <Node pos="l" depth="2" NCoef="0" IVar="7" Cut="5.4056718945503235e-02" cType="0" res="-9.9000000000000000e+01" rms="0.0000000000000000e+00" purity="5.2096414566040039e-01" nType="0">
            <Node pos="l" depth="3" NCoef="0" IVar="-1" Cut="0.0000000000000000e+00" cType="1" res="-9.9000000000000000e+01" rms="0.0000000000000000e+00" purity="8.3911043405532837e-01" nType="1"/>
            <Node pos="r" depth="3" NCoef="0" IVar="-1" Cut="0.0000000000000000e+00" cType="1" res="-9.9000000000000000e+01" rms="0.0000000000000000e+00" purity="2.6417529582977295e-01" nType="-1"/>
          </Node>
          <Node pos="r" depth="2" NCoef="0" IVar="-1" Cut="8.5279367864131927e-02" cType="0" res="-9.9000000000000000e+01" rms="0.0000000000000000e+00" purity="1.4031022787094116e-01" nType="-1"/>
        </Node>
      </Node>
    </BinaryTree>
    <BinaryTree type="DecisionTree" boostWeight="2.3667104361958990e-01" itree="34">
      <Node pos="s" depth="0" NCoef="0" IVar="9" Cut="1.4005662500858307e-01" cType="1" res="-9.9000000000000000e+01" rms="0.0000000000000000e+00" purity="4.9584290385246277e-01" nType="0">
        <Node pos="l" depth="1" NCoef="0" IVar="8" Cut="8.0739289522171021e-02" cType="0" res="-9.9000000000000000e+01" rms="0.0000000000000000e+00" purity="5.1220512390136719e-01" nType="0">
          <Node pos="l" depth="2" NCoef="0" IVar="8" Cut="1.3051098585128784e-01" cType="1" res="-9.9000000000000000e+01" rms="0.0000000000000000e+00" purity="7.5620144605636597e-01" nType="0">
            <Node pos="l" depth="3" NCoef="0" IVar="-1" Cut="0.0000000000000000e+00" cType="1" res="-9.9000000000000000e+01" rms="0.0000000000000000e+00" purity="9.4662225246429443e-01" nType="1"/>
            <Node pos="r" depth="3" NCoef="0" IVar="-1" Cut="0.0000000000000000e+00" cType="1" res="-9.9000000000000000e+01" rms="0.0000000000000000e+00" purity="3.2864600419998169e-01" nType="-1"/>
          </Node>
          <Node pos="r" depth="2" NCoef="0" IVar="5" Cut="2.5958138704299927e-01" cType="0" res="-9.9000000000000000e+01" rms="0.0000000000000000e+00" purity="4.7927424311637878e-01" nType="0">
            <Node pos="l" depth="3" NCoef="0" IVar="-1" Cut="0.0000000000000000e+00" cType="1" res="-9.9000000000000000e+01" rms="0.0000000000000000e+00" purity="7.2823828458786011e-01" nType="1"/>
            <Node pos="r" depth="3" NCoef="0" IVar="-1" Cut="0.0000000000000000e+00" cType="1" res="-9.9000000000000000e+01" rms="0.0000000000000000e+00" purity="4.4931793212890625e-01" nType="-1"/>
          </Node>
        </Node>
        <Node pos="r" depth="1" NCoef="0" IVar="-1" Cut="0.0000000000000000e+00" cType="1" res="-9.9000000000000000e+01" rms="0.0000000000000000e+00" purity="1.0327022522687912e-01" nType="-1"/>
      </Node>
    </BinaryTree>
    <BinaryTree type="DecisionTree" boostWeight="3.6545149834519608e-01" itree="35">
      <Node pos="s" depth="0" NCoef="0" IVar="4" Cut="1.4531634747982025e-01" cType="1" res="-9.9000000000000000e+01" rms="0.0000000000000000e+00" purity="5.6770497560501099e-01" nType="0">
        <Node pos="l" depth="1" NCoef="0" IVar="0" Cut="2.5667294859886169e-02" cType="0" res="-9.9000000000000000e+01" rms="0.0000000000000000e+00" purity="5.9041249752044678e-01" nType="0">
          <Node pos="l" depth="2" NCoef="0" IVar="3" Cut="1.3375735282897949e-01" cType="1" res="-9.9000000000000000e+01" rms="0.0000000000000000e+00" purity="6.4009284973144531e-01" nType="0">
            <Node pos="l" depth="3" NCoef="0" IVar="-1" Cut="0.0000000000000000e+00" cType="1" res="-9.9000000000000000e+01" rms="0.0000000000000000e+00" purity="6.5737974643707275e-01" nType="1"/>
            <Node pos="r" depth="3" NCoef="0" IVar="-1" Cut="0.0000000000000000e+00" cType="1" res="-9.9000000000000000e+01" rms="0.0000000000000000e+00" purity="2.0919317007064819e-01" nType="-1"/>
          </Node>
          <Node pos="r" depth="2" NCoef="0" IVar="8" Cut="3.2295715063810349e-02" cType="1" res="-9.9000000000000000e+01" rms="0.0000000000000000e+00" purity="4.2405131459236145e-01" nType="0">
            <Node pos="l" depth="3" NCoef="0" IVar="-1" Cut="0.0000000000000000e+00" cType="1" res="-9.9000000000000000e+01" rms="0.0000000000000000e+00" purity="6.0090988874435425e-01" nType="1"/>
            <Node pos="r" depth="3" NCoef="0" IVar="-1" Cut="0.0000000000000000e+00" cType="1" res="-9.9000000000000000e+01" rms="0.0000000000000000e+00" purity="2.0038449764251709e-01" nType="-1"/>
          </Node>
        </Node>
        <Node pos="r" depth="1" NCoef="0" IVar="0" Cut="1.0403327643871307e-01" cType="0" res="-9.9000000000000000e+01" rms="0.0000000000000000e+00" purity="2.8976061940193176e-01" nType="0">
          <Node pos="l" depth="2" NCoef="0" IVar="-1" Cut="0.0000000000000000e+00" cType="1" res="-9.9000000000000000e+01" rms="0.0000000000000000e+00" purity="5.5936974287033081e-01" nType="1"/>
          <Node pos="r" depth="2" NCoef="0" IVar="-1" Cut="0.0000000000000000e+00" cType="1" res="-9.9000000000000000e+01" rms="0.0000000000000000e+00" purity="1.3131326436996460e-01" nType="-1"/>
        </Node>
      </Node>
    </BinaryTree>
    <BinaryTree type="DecisionTree" boostWeight="3.5268096913074926e-01" itree="36">
      <Node pos="s" depth="0" NCoef="0" IVar="3" Cut="4.9616947770118713e-02" cType="1" res="-9.9000000000000000e+01" rms="0.0000000000000000e+00" purity="5.1107978820800781e-01" nType="0">
        <Node pos="l" depth="1" NCoef="0" IVar="8" Cut="1.7024340108036995e-02" cType="0" res="-9.9000000000000000e+01" rms="0.0000000000000000e+00" purity="5.6194674968719482e-01" nType="0">
          <Node pos="l" depth="2" NCoef="0" IVar="5" Cut="3.1449753046035767e-01" cType="1" res="-9.9000000000000000e+01" rms="0.0000000000000000e+00" purity="5.9980303049087524e-01" nType="0">
            <Node pos="l" depth="3" NCoef="0" IVar="-1" Cut="0.0000000000000000e+00" cType="1" res="-9.9000000000000000e+01" rms="0.0000000000000000e+00" purity="6.3517314195632935e-01" nType="1"/>
            <Node pos="r" depth="3" NCoef="0" IVar="-1" Cut="0.0000000000000000e+00" cType="1" res="-9.9000000000000000e+01" rms="0.0000000000000000e+00" purity="2.3951025307178497e-01" nType="-1"/>
          </Node>
          <Node pos="r" depth="2" NCoef="0" IVar="-1" Cut="0.0000000000000000e+00" cType="1" res="-9.9000000000000000e+01" rms="0.0000000000000000e+00" purity="2.6334777474403381e-01" nType="-1"/>
        </Node>
        <Node pos="r" depth="1" NCoef="0" IVar="8" Cut="8.3848372101783752e-02" cType="1" res="-9.9000000000000000e+01" rms="0.0000000000000000e+00" purity="3.5122004151344299e-01" nType="0">
          <Node pos="l" depth="2" NCoef="0" IVar="6" Cut="1.0492710024118423e-01" cType="0" res="-9.9000000000000000e+01" rms="0.0000000000000000e+00" purity="4.2986610531806946e-01" nType="0">
            <Node pos="l" depth="3" NCoef="0" IVar="-1" Cut="0.0000000000000000e+00" cType="1" res="-9.9000000000000000e+01" rms="0.0000000000000000e+00" purity="5.8891588449478149e-01" nType="1"/>
            <Node pos="r" depth="3" NCoef="0" IVar="-1" Cut="0.0000000000000000e+00" cType="1" res="-9.9000000000000000e+01" rms="0.0000000000000000e+00" purity="2.9396882653236389e-01" nType="-1"/>
          </Node>
          <Node pos="r" depth="2" NCoef="0" IVar="-1" Cut="1.0417789965867996e-01" cType="0" res="-9.9000000000000000e+01" rms="0.0000000000000000e+00" purity="1.2273637205362320e-01" nType="-1"/>
        </Node>
      </Node>
    </BinaryTree>
    <BinaryTree type="DecisionTree" boostWeight="3.9541267802155539e-01" itree="37">
      <Node pos="s" depth="0" NCoef="0" IVar="5" Cut="2.0249729976058006e-02" cType="1" res="-9.9000000000000000e+01" rms="0.0000000000000000e+00" purity="4.4560605287551880e-01" nType="0">
        <Node pos="l" depth="1" NCoef="0" IVar="-1" Cut="0.0000000000000000e+00" cType="1" res="-9.9000000000000000e+01" rms="0.0000000000000000e+00" purity="9.0674221515655518e-01" nType="1"/>
        <Node pos="r" depth="1" NCoef="0" IVar="3" Cut="2.4865692481398582e-02" cType="0" res="-9.9000000000000000e+01" rms="0.0000000000000000e+00" purity="4.2335838079452515e-01" nType="0">
          <Node pos="l" depth="2" NCoef="0" IVar="9" Cut="4.8051655292510986e-02" cType="1" res="-9.9000000000000000e+01" rms="0.0000000000000000e+00" purity="4.7901633381843567e-01" nType="0">
            <Node pos="l" depth="3" NCoef="0" IVar="-1" Cut="0.0000000000000000e+00" cType="1" res="-9.9000000000000000e+01" rms="0.0000000000000000e+00" purity="5.6612640619277954e-01" nType="1"/>
            <Node pos="r" depth="3" NCoef="0" IVar="-1" Cut="0.0000000000000000e+00" cType="1" res="-9.9000000000000000e+01" rms="0.0000000000000000e+00" purity="3.2412543892860413e-01" nType="-1"/>
          </Node>
          <Node pos="r" depth="2" NCoef="0" IVar="1" Cut="1.9839726388454437e-02" cType="1" res="-9.9000000000000000e+01" rms="0.0000000000000000e+00" purity="3.0000472068786621e-01" nType="0">
            <Node pos="l" depth="3" NCoef="0" IVar="-1" Cut="0.0000000000000000e+00" cType="1" res="-9.9000000000000000e+01" rms="0.0000000000000000e+00" purity="8.0141043663024902e-01" nType="1"/>
            <Node pos="r" depth="3" NCoef="0" IVar="-1" Cut="0.0000000000000000e+00" cType="1" res="-9.9000000000000000e+01" rms="0.0000000000000000e+00" purity="1.5303498506546021e-01" nType="-1"/>
          </Node>
        </Node>
      </Node>
    </BinaryTree>
    <BinaryTree type="DecisionTree" boostWeight="2.3818144336929964e-01" itree="38">
      <Node pos="s" depth="0" NCoef="0" IVar="7" Cut="2.1238315850496292e-02" cType="1" res="-9.9000000000000000e+01" rms="0.0000000000000000e+00" purity="4.6468588709831238e-01" nType="0">
        <Node pos="l" depth="1" NCoef="0" IVar="-1" Cut="1.5969412401318550e-02" cType="0" res="-9.9000000000000000e+01" rms="0.0000000000000000e+00" purity="7.4426251649856567e-01" nType="1"/>
        <Node pos="r" depth="1" NCoef="0" IVar="4" Cut="1.4413009583950043e-01" cType="1" res="-9.9000000000000000e+01" rms="0.0000000000000000e+00" purity="4.3299609422683716e-01" nType="0">
          <Node pos="l" depth="2" NCoef="0" IVar="7" Cut="5.0438638776540756e-02" cType="0" res="-9.9000000000000000e+01" rms="0.0000000000000000e+00" purity="4.5228928327560425e-01" nType="0">
            <Node pos="l" depth="3" NCoef="0" IVar="-1" Cut="0.0000000000000000e+00" cType="1" res="-9.9000000000000000e+01" rms="0.0000000000000000e+00" purity="5.4230856895446777e-01" nType="1"/>
            <Node pos="r" depth="3" NCoef="0" IVar="-1" Cut="0.0000000000000000e+00" cType="1" res="-9.9000000000000000e+01" rms="0.0000000000000000e+00" purity="3.8037350773811340e-01" nType="-1"/>
          </Node>
          <Node pos="r" depth="2" NCoef="0" IVar="-1" Cut="0.0000000000000000e+00" cType="1" res="-9.9000000000000000e+01" rms="0.0000000000000000e+00" purity="1.1217026412487030e-01" nType="-1"/>
        </Node>
      </Node>
    </BinaryTree>
    <BinaryTree type="DecisionTree" boostWeight="2.8398965620583233e-01" itree="39">
      <Node pos="s" depth="0" NCoef="0" IVar="1" Cut="4.6915408223867416e-02" cType="1" res="-9.9000000000000000e+01" rms="0.0000000000000000e+00" purity="4.9984106421470642e-01" nType="0">
        <Node pos="l" depth="1" NCoef="0" IVar="4" Cut="1.0636919736862183e-01" cType="1" res="-9.9000000000000000e+01" rms="0.0000000000000000e+00" purity="5.5567008256912231e-01" nType="0">
          <Node pos="l" depth="2" NCoef="0" IVar="-1" Cut="2.5834479928016663e-01" cType="0" res="-9.9000000000000000e+01" rms="0.0000000000000000e+00" purity="5.9158062934875488e-01" nType="1"/>
          <Node pos="r" depth="2" NCoef="0" IVar="-1" Cut="9.1686613857746124e-02" cType="1" res="-9.9000000000000000e+01" rms="0.0000000000000000e+00" purity="3.0534598231315613e-01" nType="-1"/>
        </Node>
        <Node pos="r" depth="1" NCoef="0" IVar="5" Cut="1.2766750156879425e-01" cType="0" res="-9.9000000000000000e+01" rms="0.0000000000000000e+00" purity="3.3984449505805969e-01" nType="0">
          <Node pos="l" depth="2" NCoef="0" IVar="7" Cut="7.6009266078472137e-02" cType="1" res="-9.9000000000000000e+01" rms="0.0000000000000000e+00" purity="5.0316649675369263e-01" nType="0">
            <Node pos="l" depth="3" NCoef="0" IVar="-1" Cut="0.0000000000000000e+00" cType="1" res="-9.9000000000000000e+01" rms="0.0000000000000000e+00" purity="7.2645294666290283e-01" nType="1"/>
            <Node pos="r" depth="3" NCoef="0" IVar="-1" Cut="0.0000000000000000e+00" cType="1" res="-9.9000000000000000e+01" rms="0.0000000000000000e+00" purity="3.4907528758049011e-01" nType="-1"/>
          </Node>
          <Node pos="r" depth="2" NCoef="0" IVar="-1" Cut="8.4114573895931244e-02" cType="1" res="-9.9000000000000000e+01" rms="0.0000000000000000e+00" purity="2.2851195931434631e-01" nType="-1"/>
        </Node>
      </Node>
    </BinaryTree>
    <BinaryTree type="DecisionTree" boostWeight="3.3589311430894608e-01" itree="40">
      <Node pos="s" depth="0" NCoef="0" IVar="0" Cut="1.0089647769927979e-01" cType="1" res="-9.9000000000000000e+01" rms="0.0000000000000000e+00" purity="4.2885279655456543e-01" nType="0">
        <Node pos="l" depth="1" NCoef="0" IVar="6" Cut="4.7131221741437912e-02" cType="1" res="-9.9000000000000000e+01" rms="0.0000000000000000e+00" purity="4.6530407667160034e-01" nType="0">
          <Node pos="l" depth="2" NCoef="0" IVar="3" Cut="3.4753665328025818e-02" cType="1" res="-9.9000000000000000e+01" rms="0.0000000000000000e+00" purity="6.1249089241027832e-01" nType="0">
            <Node pos="l" depth="3" NCoef="0" IVar="-1" Cut="0.0000000000000000e+00" cType="1" res="-9.9000000000000000e+01" rms="0.0000000000000000e+00" purity="7.7196520566940308e-01" nType="1"/>
            <Node pos="r" depth="3" NCoef="0" IVar="-1" Cut="0.0000000000000000e+00" cType="1" res="-9.9000000000000000e+01" rms="0.0000000000000000e+00" purity="2.4986086785793304e-01" nType="-1"/>
          </Node>
          <Node pos="r" depth="2" NCoef="0" IVar="-1" Cut="2.4704847484827042e-02" cType="0" res="-9.9000000000000000e+01" rms="0.0000000000000000e+00" purity="4.0995275974273682e-01" nType="-1"/>
        </Node>
        <Node pos="r" depth="1" NCoef="0" IVar="-1" Cut="1.2048415094614029e-01" cType="0" res="-9.9000000000000000e+01" rms="0.0000000000000000e+00" purity="1.6398067772388458e-01" nType="-1"/>
      </Node>
    </BinaryTree>
    <BinaryTree type="DecisionTree" boostWeight="3.5317212617344912e-01" itree="41">
      <Node pos="s" depth="0" NCoef="0" IVar="4" Cut="2.7581322938203812e-02" cType="0" res="-9.9000000000000000e+01" rms="0.0000000000000000e+00" purity="4.8051732778549194e-01" nType="0">
        <Node pos="l" depth="1" NCoef="0" IVar="3" Cut="5.0685878843069077e-02" cType="0" res="-9.9000000000000000e+01" rms="0.0000000000000000e+00" purity="5.6669163703918457e-01" nType="0">
          <Node pos="l" depth="2" NCoef="0" IVar="3" Cut="1.2827222049236298e-01" cType="1" res="-9.9000000000000000e+01" rms="0.0000000000000000e+00" purity="7.8956681489944458e-01" nType="0">
            <Node pos="l" depth="3" NCoef="0" IVar="-1" Cut="0.0000000000000000e+00" cType="1" res="-9.9000000000000000e+01" rms="0.0000000000000000e+00" purity="9.5174252986907959e-01" nType="1"/>
            <Node pos="r" depth="3" NCoef="0" IVar="-1" Cut="0.0000000000000000e+00" cType="1" res="-9.9000000000000000e+01" rms="0.0000000000000000e+00" purity="4.0619340538978577e-01" nType="-1"/>
          </Node>
          <Node pos="r" depth="2" NCoef="0" IVar="6" Cut="4.1028045117855072e-02" cType="1" res="-9.9000000000000000e+01" rms="0.0000000000000000e+00" purity="5.1452434062957764e-01" nType="0">
            <Node pos="l" depth="3" NCoef="0" IVar="-1" Cut="0.0000000000000000e+00" cType="1" res="-9.9000000000000000e+01" rms="0.0000000000000000e+00" purity="7.9266589879989624e-01" nType="1"/>
            <Node pos="r" depth="3" NCoef="0" IVar="-1" Cut="0.0000000000000000e+00" cType="1" res="-9.9000000000000000e+01" rms="0.0000000000000000e+00" purity="4.5250460505485535e-01" nType="-1"/>
          </Node>
        </Node>
        <Node pos="r" depth="1" NCoef="0" IVar="5" Cut="2.1087779104709625e-01" cType="0" res="-9.9000000000000000e+01" rms="0.0000000000000000e+00" purity="3.6451539397239685e-01" nType="0">
          <Node pos="l" depth="2" NCoef="0" IVar="8" Cut="4.6664718538522720e-02" cType="1" res="-9.9000000000000000e+01" rms="0.0000000000000000e+00" purity="5.8983606100082397e-01" nType="0">
            <Node pos="l" depth="3" NCoef="0" IVar="-1" Cut="0.0000000000000000e+00" cType="1" res="-9.9000000000000000e+01" rms="0.0000000000000000e+00" purity="7.8233617544174194e-01" nType="1"/>
            <Node pos="r" depth="3" NCoef="0" IVar="-1" Cut="0.0000000000000000e+00" cType="1" res="-9.9000000000000000e+01" rms="0.0000000000000000e+00" purity="3.1827953457832336e-01" nType="-1"/>
          </Node>
          <Node pos="r" depth="2" NCoef="0" IVar="4" Cut="1.7319720238447189e-02" cType="1" res="-9.9000000000000000e+01" rms="0.0000000000000000e+00" purity="3.2134988903999329e-01" nType="0">
            <Node pos="l" depth="3" NCoef="0" IVar="-1" Cut="0.0000000000000000e+00" cType="1" res="-9.9000000000000000e+01" rms="0.0000000000000000e+00" purity="5.7137411832809448e-01" nType="1"/>
            <Node pos="r" depth="3" NCoef="0" IVar="-1" Cut="0.0000000000000000e+00" cType="1" res="-9.9000000000000000e+01" rms="0.0000000000000000e+00" purity="2.6962059736251831e-01" nType="-1"/>
          </Node>
        </Node>
      </Node>
    </BinaryTree>
    <BinaryTree type="DecisionTree" boostWeight="4.6057094214718269e-01" itree="42">
      <Node pos="s" depth="0" NCoef="0" IVar="3" Cut="2.9545998200774193e-02" cType="0" res="-9.9000000000000000e+01" rms="0.0000000000000000e+00" purity="5.4977631568908691e-01" nType="0">
        <Node pos="l" depth="1" NCoef="0" IVar="1" Cut="4.1992753744125366e-02" cType="1" res="-9.9000000000000000e+01" rms="0.0000000000000000e+00" purity="6.1622035503387451e-01" nType="0">
          <Node pos="l" depth="2" NCoef="0" IVar="2" Cut="8.7353028357028961e-02" cType="1" res="-9.9000000000000000e+01" rms="0.0000000000000000e+00" purity="7.3866271972656250e-01" nType="0">
            <Node pos="l" depth="3" NCoef="0" IVar="-1" Cut="0.0000000000000000e+00" cType="1" res="-9.9000000000000000e+01" rms="0.0000000000000000e+00" purity="7.9008114337921143e-01" nType="1"/>
            <Node pos="r" depth="3" NCoef="0" IVar="-1" Cut="0.0000000000000000e+00" cType="1" res="-9.9000000000000000e+01" rms="0.0000000000000000e+00" purity="2.9551178216934204e-01" nType="-1"/>
          </Node>
          <Node pos="r" depth="2" NCoef="0" IVar="4" Cut="6.2798917293548584e-02" cType="0" res="-9.9000000000000000e+01" rms="0.0000000000000000e+00" purity="3.8121607899665833e-01" nType="0">
            <Node pos="l" depth="3" NCoef="0" IVar="-1" Cut="0.0000000000000000e+00" cType="1" res="-9.9000000000000000e+01" rms="0.0000000000000000e+00" purity="8.2734984159469604e-01" nType="1"/>
            <Node pos="r" depth="3" NCoef="0" IVar="-1" Cut="0.0000000000000000e+00" cType="1" res="-9.9000000000000000e+01" rms="0.0000000000000000e+00" purity="3.0068251490592957e-01" nType="-1"/>
          </Node>
        </Node>
        <Node pos="r" depth="1" NCoef="0" IVar="3" Cut="2.7401603758335114e-02" cType="1" res="-9.9000000000000000e+01" rms="0.0000000000000000e+00" purity="4.8177349567413330e-01" nType="0">
          <Node pos="l" depth="2" NCoef="0" IVar="9" Cut="5.3750313818454742e-02" cType="1" res="-9.9000000000000000e+01" rms="0.0000000000000000e+00" purity="5.4627788066864014e-01" nType="0">
            <Node pos="l" depth="3" NCoef="0" IVar="-1" Cut="0.0000000000000000e+00" cType="1" res="-9.9000000000000000e+01" rms="0.0000000000000000e+00" purity="6.1156952381134033e-01" nType="1"/>
            <Node pos="r" depth="3" NCoef="0" IVar="-1" Cut="0.0000000000000000e+00" cType="1" res="-9.9000000000000000e+01" rms="0.0000000000000000e+00" purity="2.6307585835456848e-01" nType="-1"/>
          </Node>
          <Node pos="r" depth="2" NCoef="0" IVar="-1" Cut="0.0000000000000000e+00" cType="1" res="-9.9000000000000000e+01" rms="0.0000000000000000e+00" purity="1.5510483086109161e-01" nType="-1"/>
        </Node>
      </Node>
    </BinaryTree>
    <BinaryTree type="DecisionTree" boostWeight="2.8166154846147967e-01" itree="43">
      <Node pos="s" depth="0" NCoef="0" IVar="7" Cut="1.2742988765239716e-01" cType="1" res="-9.9000000000000000e+01" rms="0.0000000000000000e+00" purity="4.6030822396278381e-01" nType="0">
        <Node pos="l" depth="1" NCoef="0" IVar="0" Cut="5.8598026633262634e-02" cType="1" res="-9.9000000000000000e+01" rms="0.0000000000000000e+00" purity="4.8267227411270142e-01" nType="0">
          <Node pos="l" depth="2" NCoef="0" IVar="4" Cut="3.6099828779697418e-02" cType="1" res="-9.9000000000000000e+01" rms="0.0000000000000000e+00" purity="5.2513277530670166e-01" nType="0">
            <Node pos="l" depth="3" NCoef="0" IVar="-1" Cut="0.0000000000000000e+00" cType="1" res="-9.9000000000000000e+01" rms="0.0000000000000000e+00" purity="5.9665852785110474e-01" nType="1"/>
            <Node pos="r" depth="3" NCoef="0" IVar="-1" Cut="0.0000000000000000e+00" cType="1" res="-9.9000000000000000e+01" rms="0.0000000000000000e+00" purity="4.1277906298637390e-01" nType="-1"/>
          </Node>
          <Node pos="r" depth="2" NCoef="0" IVar="7" Cut="5.4159611463546753e-02" cType="0" res="-9.9000000000000000e+01" rms="0.0000000000000000e+00" purity="3.6749574542045593e-01" nType="0">
            <Node pos="l" depth="3" NCoef="0" IVar="-1" Cut="0.0000000000000000e+00" cType="1" res="-9.9000000000000000e+01" rms="0.0000000000000000e+00" purity="5.7261437177658081e-01" nType="1"/>
            <Node pos="r" depth="3" NCoef="0" IVar="-1" Cut="0.0000000000000000e+00" cType="1" res="-9.9000000000000000e+01" rms="0.0000000000000000e+00" purity="1.4582678675651550e-01" nType="-1"/>
          </Node>
        </Node>
        <Node pos="r" depth="1" NCoef="0" IVar="-1" Cut="5.1607508212327957e-02" cType="0" res="-9.9000000000000000e+01" rms="0.0000000000000000e+00" purity="2.2041431069374084e-01" nType="-1"/>
      </Node>
    </BinaryTree>
    <BinaryTree type="DecisionTree" boostWeight="3.3869554999441565e-01" itree="44">
      <Node pos="s" depth="0" NCoef="0" IVar="2" Cut="2.2114859893918037e-02" cType="0" res="-9.9000000000000000e+01" rms="0.0000000000000000e+00" purity="5.1212614774703979e-01" nType="0">
        <Node pos="l" depth="1" NCoef="0" IVar="4" Cut="6.2798917293548584e-02" cType="0" res="-9.9000000000000000e+01" rms="0.0000000000000000e+00" purity="5.6294113397598267e-01" nType="0">
          <Node pos="l" depth="2" NCoef="0" IVar="-1" Cut="5.1387649029493332e-02" cType="0" res="-9.9000000000000000e+01" rms="0.0000000000000000e+00" purity="7.2444576025009155e-01" nType="1"/>
          <Node pos="r" depth="2" NCoef="0" IVar="2" Cut="3.5280305892229080e-02" cType="1" res="-9.9000000000000000e+01" rms="0.0000000000000000e+00" purity="5.1974254846572876e-01" nType="0">
            <Node pos="l" depth="3" NCoef="0" IVar="-1" Cut="0.0000000000000000e+00" cType="1" res="-9.9000000000000000e+01" rms="0.0000000000000000e+00" purity="6.5408241748809814e-01" nType="1"/>
            <Node pos="r" depth="3" NCoef="0" IVar="-1" Cut="0.0000000000000000e+00" cType="1" res="-9.9000000000000000e+01" rms="0.0000000000000000e+00" purity="4.1340813040733337e-01" nType="-1"/>
          </Node>
        </Node>
        <Node pos="r" depth="1" NCoef="0" IVar="6" Cut="6.6596560180187225e-02" cType="0" res="-9.9000000000000000e+01" rms="0.0000000000000000e+00" purity="3.0021625757217407e-01" nType="0">
          <Node pos="l" depth="2" NCoef="0" IVar="-1" Cut="0.0000000000000000e+00" cType="1" res="-9.9000000000000000e+01" rms="0.0000000000000000e+00" purity="6.5673470497131348e-01" nType="1"/>
          <Node pos="r" depth="2" NCoef="0" IVar="-1" Cut="2.8861392289400101e-02" cType="1" res="-9.9000000000000000e+01" rms="0.0000000000000000e+00" purity="2.1011987328529358e-01" nType="-1"/>
        </Node>
      </Node>
    </BinaryTree>
    <BinaryTree type="DecisionTree" boostWeight="3.6636825505500326e-01" itree="45">
      <Node pos="s" depth="0" NCoef="0" IVar="3" Cut="4.4476848095655441e-02" cType="1" res="-9.9000000000000000e+01" rms="0.0000000000000000e+00" purity="5.3908056020736694e-01" nType="0">
        <Node pos="l" depth="1" NCoef="0" IVar="4" Cut="7.5493924319744110e-02" cType="0" res="-9.9000000000000000e+01" rms="0.0000000000000000e+00" purity="6.2206512689590454e-01" nType="0">
          <Node pos="l" depth="2" NCoef="0" IVar="-1" Cut="1.4349348843097687e-01" cType="1" res="-9.9000000000000000e+01" rms="0.0000000000000000e+00" purity="8.0896168947219849e-01" nType="1"/>
          <Node pos="r" depth="2" NCoef="0" IVar="5" Cut="1.8540707230567932e-01" cType="1" res="-9.9000000000000000e+01" rms="0.0000000000000000e+00" purity="5.8519208431243896e-01" nType="0">
            <Node pos="l" depth="3" NCoef="0" IVar="-1" Cut="0.0000000000000000e+00" cType="1" res="-9.9000000000000000e+01" rms="0.0000000000000000e+00" purity="6.6878318786621094e-01" nType="1"/>
            <Node pos="r" depth="3" NCoef="0" IVar="-1" Cut="0.0000000000000000e+00" cType="1" res="-9.9000000000000000e+01" rms="0.0000000000000000e+00" purity="4.2948070168495178e-01" nType="-1"/>
          </Node>
        </Node>
        <Node pos="r" depth="1" NCoef="0" IVar="7" Cut="1.5070486068725586e-01" cType="0" res="-9.9000000000000000e+01" rms="0.0000000000000000e+00" purity="3.5235831141471863e-01" nType="0">
          <Node pos="l" depth="2" NCoef="0" IVar="-1" Cut="0.0000000000000000e+00" cType="1" res="-9.9000000000000000e+01" rms="0.0000000000000000e+00" purity="7.3360407352447510e-01" nType="1"/>
          <Node pos="r" depth="2" NCoef="0" IVar="-1" Cut="3.4911762923002243e-02" cType="0" res="-9.9000000000000000e+01" rms="0.0000000000000000e+00" purity="3.0128279328346252e-01" nType="-1"/>
        </Node>
      </Node>
    </BinaryTree>
    <BinaryTree type="DecisionTree" boostWeight="3.2426840094905662e-01" itree="46">
      <Node pos="s" depth="0" NCoef="0" IVar="6" Cut="3.7393130362033844e-02" cType="0" res="-9.9000000000000000e+01" rms="0.0000000000000000e+00" purity="5.4396486282348633e-01" nType="0">
        <Node pos="l" depth="1" NCoef="0" IVar="3" Cut="2.5775341317057610e-02" cType="1" res="-9.9000000000000000e+01" rms="0.0000000000000000e+00" purity="5.8188223838806152e-01" nType="0">
          <Node pos="l" depth="2" NCoef="0" IVar="-1" Cut="4.5779857784509659e-02" cType="1" res="-9.9000000000000000e+01" rms="0.0000000000000000e+00" purity="7.6479262113571167e-01" nType="1"/>
          <Node pos="r" depth="2" NCoef="0" IVar="9" Cut="2.5563197210431099e-02" cType="0" res="-9.9000000000000000e+01" rms="0.0000000000000000e+00" purity="5.2489519119262695e-01" nType="0">
            <Node pos="l" depth="3" NCoef="0" IVar="-1" Cut="0.0000000000000000e+00" cType="1" res="-9.9000000000000000e+01" rms="0.0000000000000000e+00" purity="5.7651686668395996e-01" nType="1"/>
            <Node pos="r" depth="3" NCoef="0" IVar="-1" Cut="0.0000000000000000e+00" cType="1" res="-9.9000000000000000e+01" rms="0.0000000000000000e+00" purity="2.6758903264999390e-01" nType="-1"/>
          </Node>
        </Node>
        <Node pos="r" depth="1" NCoef="0" IVar="0" Cut="3.6488316953182220e-02" cType="1" res="-9.9000000000000000e+01" rms="0.0000000000000000e+00" purity="4.0149974822998047e-01" nType="0">
          <Node pos="l" depth="2" NCoef="0" IVar="4" Cut="3.8437440991401672e-02" cType="0" res="-9.9000000000000000e+01" rms="0.0000000000000000e+00" purity="5.4003530740737915e-01" nType="0">
            <Node pos="l" depth="3" NCoef="0" IVar="-1" Cut="0.0000000000000000e+00" cType="1" res="-9.9000000000000000e+01" rms="0.0000000000000000e+00" purity="1.0000000000000000e+00" nType="1"/>
            <Node pos="r" depth="3" NCoef="0" IVar="-1" Cut="0.0000000000000000e+00" cType="1" res="-9.9000000000000000e+01" rms="0.0000000000000000e+00" purity="4.4840171933174133e-01" nType="-1"/>
          </Node>
          <Node pos="r" depth="2" NCoef="0" IVar="-1" Cut="0.0000000000000000e+00" cType="1" res="-9.9000000000000000e+01" rms="0.0000000000000000e+00" purity="7.4301347136497498e-02" nType="-1"/>
        </Node>
      </Node>
    </BinaryTree>
    <BinaryTree type="DecisionTree" boostWeight="2.6944989492007082e-01" itree="47">
      <Node pos="s" depth="0" NCoef="0" IVar="8" Cut="8.5417710244655609e-02" cType="1" res="-9.9000000000000000e+01" rms="0.0000000000000000e+00" purity="4.4972601532936096e-01" nType="0">
        <Node pos="l" depth="1" NCoef="0" IVar="0" Cut="1.4727096259593964e-01" cType="1" res="-9.9000000000000000e+01" rms="0.0000000000000000e+00" purity="4.8727580904960632e-01" nType="0">
          <Node pos="l" depth="2" NCoef="0" IVar="7" Cut="4.2476631700992584e-02" cType="0" res="-9.9000000000000000e+01" rms="0.0000000000000000e+00" purity="5.1350837945938110e-01" nType="0">
            <Node pos="l" depth="3" NCoef="0" IVar="-1" Cut="0.0000000000000000e+00" cType="1" res="-9.9000000000000000e+01" rms="0.0000000000000000e+00" purity="6.0639482736587524e-01" nType="1"/>
            <Node pos="r" depth="3" NCoef="0" IVar="-1" Cut="0.0000000000000000e+00" cType="1" res="-9.9000000000000000e+01" rms="0.0000000000000000e+00" purity="4.2724877595901489e-01" nType="-1"/>
          </Node>
          <Node pos="r" depth="2" NCoef="0" IVar="-1" Cut="4.9949847161769867e-02" cType="1" res="-9.9000000000000000e+01" rms="0.0000000000000000e+00" purity="2.0930582284927368e-01" nType="-1"/>
        </Node>
        <Node pos="r" depth="1" NCoef="0" IVar="-1" Cut="1.0772770643234253e-01" cType="0" res="-9.9000000000000000e+01" rms="0.0000000000000000e+00" purity="2.0241403579711914e-01" nType="-1"/>
      </Node>
    </BinaryTree>
    <BinaryTree type="DecisionTree" boostWeight="2.1925479908437168e-01" itree="48">
      <Node pos="s" depth="0" NCoef="0" IVar="3" Cut="6.0432240366935730e-02" cType="0" res="-9.9000000000000000e+01" rms="0.0000000000000000e+00" purity="4.9179485440254211e-01" nType="0">
        <Node pos="l" depth="1" NCoef="0" IVar="4" Cut="4.2114641517400742e-02" cType="1" res="-9.9000000000000000e+01" rms="0.0000000000000000e+00" purity="6.9111102819442749e-01" nType="0">
          <Node pos="l" depth="2" NCoef="0" IVar="-1" Cut="1.2221850454807281e-01" cType="1" res="-9.9000000000000000e+01" rms="0.0000000000000000e+00" purity="8.5953336954116821e-01" nType="1"/>
          <Node pos="r" depth="2" NCoef="0" IVar="9" Cut="5.3771723061800003e-02" cType="0" res="-9.9000000000000000e+01" rms="0.0000000000000000e+00" purity="4.0128639340400696e-01" nType="0">
